svm_type c_svc
kernel_type sigmoid
gamma 1.0
coef0 0.0
nr_class 2
total_sv 511
rho -0.5780169076261474
label 0 1
nr_sv 294 217
SV
0.4222745001986109 0:0.0 0:0.0 491:0.0 0:0.0 0:0.0 0:0.0 0:0.0 0:0.0 0:0.0 0:0.0 0:0.0 2:2.0 0:0.0 0:0.0 1:0.0 0:150.0 25:0.0 0:0.0 0:0.0 0:0.0 
1.0 0:1.0 1:0.0 146:0.0 0:0.0 0:0.0 0:0.0 0:0.0 0:0.0 0:0.0 0:0.0 0:0.0 13:1.0 0:0.0 0:0.0 0:0.0 0:255.0 1:0.0 1:1.0 0:0.0 0:0.0 
1.0 0:0.0 3:0.0 287:2251.0 0:0.0 0:0.0 0:1.0 0:0.0 0:0.0 0:0.0 0:0.0 0:0.0 3:7.0 0:0.0 0:0.0 1:0.0 0:8.0 219:1.0 0:0.0 0:0.0 0:0.0 
0.43974827602505684 0:0.0 3:0.0 300:13788.0 0:0.0 0:0.0 0:1.0 0:0.0 0:0.0 0:0.0 0:0.0 0:0.0 8:9.0 0:0.0 0:0.0 1:0.0 0:91.0 255:1.0 0:0.0 0:0.0 0:0.0 
0.4222745019942522 0:0.0 3:0.0 343:1178.0 0:0.0 0:0.0 0:1.0 0:0.0 0:0.0 0:0.0 0:0.0 0:0.0 9:10.0 0:0.0 0:0.0 1:0.0 0:157.0 255:1.0 0:0.0 0:0.0 0:0.0 
0.4222745019942522 5607:1.0 1:0.0 147:105.0 0:0.0 0:0.0 0:0.0 0:0.0 0:0.0 0:0.0 0:0.0 0:0.0 1:1.0 0:0.0 0:0.0 1:0.0 0:255.0 1:0.0 1:1.0 0:0.0 0:0.0 
0.4222745019942522 507:0.0 9:0.0 437:14421.0 0:0.0 0:0.0 0:1.0 3:0.0 0:0.0 0:0.0 1:0.0 0:0.0 1:1.0 0:0.0 0:0.0 1:0.0 0:255.0 25:0.0 0:0.0 0:1.0 0:0.0 
1.0 0:1.0 11:0.0 45:45.0 0:0.0 0:0.0 0:0.0 0:0.0 0:0.0 0:0.0 0:0.0 0:0.0 181:181.0 0:0.0 0:0.0 1:0.0 0:255.0 250:1.0 0:0.0 0:0.0 0:0.0 
1.0 0:1.0 11:0.0 43:43.0 0:0.0 0:0.0 0:0.0 0:0.0 0:0.0 0:0.0 0:0.0 0:0.0 122:202.0 0:0.0 0:0.0 1:0.0 0:255.0 255:1.0 0:0.0 0:0.0 0:0.0 
0.4219728708093385 2:0.0 15:0.0 1591:372.0 0:0.0 0:0.0 0:1.0 0:0.0 0:0.0 0:0.0 0:0.0 0:0.0 1:2.0 0:0.0 0:0.0 1:0.0 1:181.0 147:1.0 0:0.0 0:0.0 0:0.0 
0.4219941406771095 9052:1.0 1:0.0 146:105.0 0:0.0 0:0.0 0:0.0 0:0.0 0:0.0 0:0.0 0:0.0 0:0.0 4:2.0 0:0.0 0:0.0 1:1.0 0:255.0 2:0.0 1:1.0 0:0.0 0:0.0 
1.0 0:0.0 3:0.0 290:3006.0 0:0.0 0:0.0 0:1.0 0:0.0 0:0.0 0:0.0 0:0.0 0:0.0 11:11.0 0:0.0 0:0.0 1:0.0 0:255.0 255:1.0 0:0.0 0:0.0 0:0.0 
1.0 0:1.0 11:0.0 43:69.0 0:0.0 0:0.0 0:0.0 0:0.0 0:0.0 0:0.0 0:0.0 0:0.0 120:120.0 0:0.0 0:0.0 1:0.0 0:255.0 245:1.0 0:0.0 0:0.0 0:0.0 
0.7815329735332227 0:1.0 11:0.0 44:133.0 0:0.0 0:0.0 0:0.0 0:0.0 0:0.0 0:0.0 0:0.0 0:0.0 73:75.0 0:0.0 0:0.0 1:0.0 0:122.0 212:1.0 0:1.0 0:0.0 0:0.0 
0.4219141917952206 0:0.0 15:0.0 696:333.0 0:0.0 0:0.0 0:1.0 0:0.0 0:0.0 0:0.0 0:0.0 0:0.0 1:1.0 0:0.0 0:0.0 1:0.0 0:109.0 133:0.0 0:0.0 0:0.0 0:0.0 
1.0 0:0.0 3:0.0 221:2878.0 0:0.0 0:0.0 0:1.0 0:0.0 0:0.0 0:0.0 0:0.0 0:0.0 1:1.0 0:0.0 0:0.0 1:0.0 0:21.0 58:1.0 0:0.0 0:0.0 0:0.0 
1.0 0:1.0 11:0.0 42:42.0 0:0.0 0:0.0 0:0.0 0:0.0 0:0.0 0:0.0 0:0.0 0:0.0 9:14.0 0:0.0 0:0.0 1:0.0 0:84.0 83:1.0 0:0.0 0:0.0 0:0.0 
1.0 0:0.0 0:0.0 12:0.0 0:0.0 0:0.0 0:1.0 0:0.0 0:0.0 0:0.0 0:0.0 0:0.0 1:1.0 0:0.0 0:0.0 1:0.0 0:44.0 47:1.0 0:1.0 0:0.0 0:0.0 
0.4222701810002484 0:0.0 3:0.0 321:5683.0 0:0.0 0:0.0 0:1.0 0:0.0 0:0.0 0:0.0 0:0.0 0:0.0 10:10.0 0:0.0 0:0.0 1:0.0 0:168.0 255:1.0 0:0.0 0:0.0 0:0.0 
0.42209187281861016 0:0.0 3:0.0 353:1483.0 0:0.0 0:0.0 0:1.0 0:0.0 0:0.0 0:0.0 0:0.0 0:0.0 3:9.0 0:0.0 0:0.0 1:0.0 0:255.0 255:1.0 0:0.0 0:0.0 0:0.0 
1.0 0:1.0 11:0.0 44:44.0 0:0.0 0:0.0 0:0.0 0:0.0 0:0.0 0:0.0 0:0.0 0:0.0 109:189.0 0:0.0 0:0.0 1:0.0 0:255.0 254:1.0 0:0.0 0:0.0 0:0.0 
0.42209187281861016 2:0.0 15:0.0 3065:331.0 0:0.0 0:0.0 0:1.0 0:0.0 0:0.0 0:0.0 0:0.0 0:0.0 1:2.0 0:0.0 0:0.0 1:0.0 1:243.0 119:0.0 0:0.0 0:0.0 0:0.0 
1.0 0:1.0 1:0.0 102:102.0 0:0.0 0:0.0 0:0.0 0:0.0 0:0.0 0:0.0 0:0.0 0:0.0 1:1.0 0:0.0 0:0.0 1:0.0 0:7.0 1:0.0 0:0.0 0:0.0 0:0.0 
0.42213610306016147 0:0.0 3:0.0 259:750.0 0:0.0 0:0.0 0:1.0 0:0.0 0:0.0 0:0.0 0:0.0 0:0.0 4:5.0 0:0.0 0:0.0 1:0.0 0:4.0 255:1.0 0:0.0 0:0.0 0:0.0 
0.42213610306016147 1082:1.0 1:0.0 147:105.0 0:0.0 0:0.0 0:0.0 0:0.0 0:0.0 0:0.0 0:0.0 0:0.0 2:2.0 0:0.0 0:0.0 1:0.0 0:255.0 2:0.0 0:1.0 0:0.0 0:0.0 
1.0 0:0.0 3:0.0 251:301.0 0:0.0 0:0.0 0:1.0 0:0.0 0:0.0 0:0.0 0:0.0 0:0.0 3:7.0 0:0.0 0:0.0 1:0.0 0:255.0 252:1.0 0:0.0 0:0.0 0:0.0 
0.42213610306016147 0:0.0 15:0.0 2089:335.0 0:0.0 0:0.0 0:1.0 0:0.0 0:0.0 0:0.0 0:0.0 0:0.0 2:2.0 0:0.0 0:0.0 1:1.0 1:255.0 152:1.0 0:0.0 0:0.0 0:0.0 
1.0 0:0.0 3:2.0 0:0.0 0:0.0 0:0.0 0:0.0 0:0.0 0:0.0 0:0.0 0:0.0 0:0.0 1:1.0 0:0.0 1:1.0 1:0.0 0:6.0 255:1.0 0:0.0 0:0.0 0:1.0 
1.0 0:1.0 2:0.0 105:145.0 0:0.0 0:0.0 0:0.0 0:0.0 0:0.0 0:0.0 0:0.0 0:0.0 4:1.0 0:0.0 0:0.0 0:1.0 0:255.0 239:1.0 0:0.0 0:0.0 0:0.0 
0.42213610306016147 240:0.0 3:0.0 328:275.0 0:0.0 0:0.0 0:1.0 0:0.0 0:0.0 0:0.0 0:0.0 0:0.0 9:10.0 0:0.0 0:0.0 1:0.0 0:255.0 250:1.0 0:0.0 0:0.0 0:0.0 
1.0 0:1.0 11:0.0 46:46.0 0:0.0 0:0.0 0:0.0 0:0.0 0:0.0 0:0.0 0:0.0 0:0.0 96:178.0 0:0.0 0:0.0 1:0.0 0:255.0 254:1.0 0:0.0 0:0.0 0:0.0 
0.4221474502944106 1:0.0 15:0.0 1079:334.0 0:0.0 0:0.0 0:1.0 0:0.0 0:0.0 1:0.0 0:0.0 0:0.0 1:1.0 0:0.0 0:0.0 1:0.0 0:138.0 167:1.0 0:0.0 0:0.0 0:0.0 
1.0 0:1.0 11:0.0 45:139.0 0:0.0 0:0.0 0:0.0 0:0.0 0:0.0 0:0.0 0:0.0 0:0.0 79:159.0 0:0.0 0:0.0 1:0.0 0:255.0 254:1.0 0:0.0 0:0.0 0:0.0 
0.42199389597786435 26:0.0 22:0.0 273:903.0 0:0.0 0:5.0 0:1.0 0:0.0 0:0.0 0:0.0 0:0.0 0:1.0 1:1.0 0:0.0 0:0.0 1:0.0 0:176.0 49:0.0 0:0.0 0:0.0 0:0.0 
0.42199389597786435 0:0.0 3:0.0 237:138.0 0:0.0 0:0.0 0:1.0 0:0.0 0:0.0 0:0.0 0:0.0 0:0.0 2:2.0 0:0.0 0:0.0 1:0.0 0:2.0 2:1.0 0:1.0 0:0.0 0:0.0 
1.0 0:1.0 1:0.0 147:0.0 0:0.0 0:0.0 0:0.0 0:0.0 0:0.0 0:0.0 0:0.0 0:0.0 3:1.0 0:0.0 0:0.0 0:1.0 0:255.0 1:0.0 1:1.0 0:0.0 0:0.0 
1.0 0:0.0 3:0.0 262:1011.0 0:0.0 0:0.0 0:1.0 0:0.0 0:0.0 0:0.0 0:0.0 0:0.0 3:4.0 0:0.0 0:0.0 1:0.0 1:94.0 255:1.0 0:0.0 0:0.0 0:0.0 
1.0 0:0.0 3:0.0 221:981.0 0:0.0 0:0.0 0:1.0 0:0.0 0:0.0 0:0.0 0:0.0 0:0.0 2:3.0 0:0.0 0:0.0 1:0.0 1:50.0 82:1.0 0:0.0 0:0.0 0:0.0 
0.42199389597786435 0:0.0 3:0.0 309:16096.0 0:0.0 0:0.0 0:1.0 0:0.0 0:0.0 0:0.0 0:0.0 0:0.0 3:3.0 0:0.0 0:0.0 1:0.0 0:31.0 129:1.0 0:0.0 0:0.0 0:0.0 
1.0 0:1.0 11:0.0 46:78.0 0:0.0 0:0.0 0:0.0 0:0.0 0:0.0 0:0.0 0:0.0 0:0.0 278:277.0 0:0.0 0:0.0 1:0.0 0:255.0 254:1.0 0:0.0 0:0.0 0:0.0 
0.42187745662454995 0:0.0 0:0.0 748:0.0 0:0.0 0:0.0 0:1.0 0:0.0 0:9.0 0:0.0 0:0.0 0:0.0 1:1.0 0:0.0 0:0.0 1:0.0 0:6.0 92:1.0 0:1.0 0:0.0 0:0.0 
0.42188492495623525 0:0.0 0:0.0 9:0.0 0:0.0 0:0.0 0:1.0 0:0.0 0:0.0 0:0.0 0:0.0 0:0.0 2:2.0 0:0.0 0:0.0 1:0.0 0:185.0 119:1.0 0:1.0 0:0.0 0:0.0 
1.0 0:1.0 11:0.0 46:128.0 0:0.0 0:0.0 0:0.0 0:0.0 0:0.0 0:0.0 0:0.0 0:0.0 222:302.0 0:0.0 0:0.0 1:0.0 0:255.0 253:1.0 0:0.0 0:0.0 0:0.0 
0.4218919497525937 0:0.0 0:0.0 1766:0.0 0:0.0 0:0.0 0:1.0 0:0.0 0:0.0 0:0.0 0:0.0 0:0.0 2:2.0 0:0.0 0:0.0 1:0.0 0:255.0 6:0.0 0:0.0 0:0.0 0:1.0 
1.0 0:0.0 3:0.0 266:529.0 0:0.0 0:0.0 0:1.0 0:0.0 0:0.0 0:0.0 0:0.0 0:0.0 1:6.0 0:0.0 0:0.0 1:0.0 1:94.0 255:1.0 0:0.0 0:0.0 0:0.0 
0.42185901644523827 0:0.0 0:0.0 245:0.0 0:0.0 0:0.0 0:0.0 0:0.0 0:0.0 0:0.0 0:0.0 0:0.0 3:2.0 0:0.0 0:0.0 1:1.0 0:99.0 68:0.0 0:0.0 0:0.0 0:0.0 
1.0 0:0.0 3:0.0 295:465.0 0:0.0 0:0.0 0:1.0 0:0.0 0:0.0 0:0.0 0:0.0 0:0.0 11:12.0 0:0.0 0:0.0 1:0.0 0:69.0 255:1.0 0:0.0 0:0.0 0:0.0 
1.0 0:0.0 3:0.0 228:6834.0 0:0.0 0:0.0 0:1.0 0:0.0 0:0.0 0:0.0 0:0.0 0:0.0 2:7.0 0:0.0 0:0.0 1:0.0 1:18.0 19:1.0 0:0.0 0:0.0 0:0.0 
0.4214789312463031 1:0.0 15:0.0 2078:333.0 0:0.0 0:0.0 0:1.0 0:0.0 0:0.0 0:0.0 0:0.0 0:0.0 1:2.0 0:0.0 0:0.0 1:0.0 1:89.0 117:0.0 0:0.0 0:0.0 0:0.0 
0.42213610306016147 0:0.0 0:0.0 19:0.0 0:0.0 0:0.0 0:0.0 0:0.0 0:0.0 0:0.0 0:0.0 0:0.0 1:1.0 0:0.0 0:0.0 1:0.0 0:201.0 5:0.0 0:0.0 0:0.0 0:0.0 
0.4221474502944106 0:0.0 15:0.0 661:329.0 0:0.0 0:0.0 0:1.0 0:0.0 0:0.0 0:0.0 0:0.0 0:0.0 1:1.0 0:0.0 0:0.0 1:0.0 0:163.0 69:0.0 0:0.0 0:0.0 0:0.0 
0.42209187281861016 0:0.0 15:0.0 1075:364.0 0:0.0 0:0.0 0:1.0 0:0.0 0:0.0 0:0.0 0:0.0 0:0.0 1:2.0 0:0.0 0:0.0 1:0.0 1:255.0 100:0.0 0:0.0 0:0.0 0:0.0 
0.42197593163603514 0:0.0 3:0.0 271:4781.0 0:0.0 0:0.0 0:1.0 0:0.0 0:0.0 0:0.0 0:0.0 0:0.0 4:7.0 0:0.0 0:0.0 1:0.0 0:11.0 28:1.0 0:0.0 0:0.0 0:0.0 
0.4218803988766886 0:0.0 0:0.0 14416:0.0 0:0.0 0:0.0 0:1.0 0:0.0 0:0.0 0:0.0 0:0.0 0:0.0 1:1.0 0:0.0 0:0.0 1:0.0 0:205.0 50:0.0 0:0.0 0:0.0 0:0.0 
0.42197593163603514 0:0.0 3:0.0 227:11564.0 0:0.0 0:0.0 0:1.0 0:0.0 0:0.0 0:0.0 0:0.0 0:0.0 5:6.0 0:0.0 0:0.0 1:0.0 0:41.0 52:1.0 0:0.0 0:0.0 0:0.0 
0.42199389597786435 0:0.0 15:0.0 855:575.0 0:0.0 0:0.0 0:1.0 0:0.0 0:0.0 0:0.0 0:0.0 0:0.0 1:1.0 0:0.0 0:0.0 1:0.0 0:255.0 20:0.0 0:0.0 0:0.0 0:0.0 
0.42159963703479153 0:0.0 15:0.0 944:330.0 0:0.0 0:0.0 0:1.0 0:0.0 0:0.0 0:0.0 0:0.0 0:0.0 1:1.0 0:0.0 0:0.0 1:0.0 0:214.0 166:1.0 0:0.0 0:0.0 0:0.0 
0.4214789312463031 0:0.0 15:0.0 954:326.0 0:0.0 0:0.0 0:1.0 0:0.0 0:0.0 0:0.0 0:0.0 0:0.0 2:1.0 0:0.0 0:0.0 1:1.0 0:28.0 104:1.0 0:0.0 0:0.0 0:0.0 
0.42186793829807934 0:0.0 3:0.0 306:2698.0 0:0.0 0:0.0 0:1.0 0:0.0 0:0.0 0:0.0 1:0.0 0:0.0 4:5.0 0:0.0 0:0.0 1:0.0 0:255.0 240:1.0 0:0.0 0:0.0 0:0.0 
0.42186793829807934 0:0.0 3:0.0 313:8549.0 0:0.0 0:0.0 0:1.0 0:0.0 0:0.0 0:0.0 0:0.0 0:0.0 4:4.0 0:0.0 0:0.0 1:0.0 0:255.0 255:1.0 0:0.0 0:0.0 0:0.0 
0.42188039887668866 1:0.0 15:0.0 3740:449.0 0:0.0 0:0.0 0:1.0 0:0.0 0:0.0 0:0.0 0:0.0 0:0.0 1:3.0 0:0.0 0:0.0 1:0.0 1:193.0 185:1.0 0:0.0 0:0.0 0:0.0 
0.4218807202108279 0:0.0 3:0.0 285:304.0 0:0.0 0:0.0 0:1.0 0:0.0 0:0.0 0:0.0 0:0.0 0:0.0 32:34.0 0:0.0 0:0.0 1:0.0 0:101.0 255:1.0 0:0.0 0:0.0 0:0.0 
0.4215996370347916 0:0.0 0:0.0 7422:0.0 0:0.0 0:0.0 0:1.0 0:0.0 0:0.0 0:0.0 0:0.0 0:0.0 8:8.0 0:0.0 0:0.0 1:0.0 0:255.0 44:0.0 0:0.0 0:0.0 0:1.0 
1.0 0:0.0 3:0.0 198:12884.0 0:0.0 0:0.0 0:1.0 0:0.0 0:0.0 0:0.0 0:0.0 0:0.0 2:2.0 0:0.0 0:0.0 1:0.0 0:2.0 2:1.0 0:1.0 0:0.0 0:0.0 
0.4215996370347916 20:0.0 15:0.0 2310:328.0 0:0.0 0:0.0 0:1.0 0:0.0 0:0.0 0:0.0 0:0.0 0:0.0 1:3.0 0:0.0 0:0.0 1:0.0 1:255.0 157:1.0 0:0.0 0:0.0 0:0.0 
1.0 0:1.0 11:0.0 45:77.0 0:0.0 0:0.0 0:0.0 0:0.0 0:0.0 0:0.0 0:0.0 0:0.0 171:173.0 0:0.0 0:0.0 1:0.0 0:255.0 232:1.0 0:0.0 0:0.0 0:0.0 
0.4222745019942522 0:0.0 10:0.0 9:142.0 0:0.0 0:0.0 0:0.0 0:0.0 0:0.0 0:0.0 0:0.0 0:0.0 1:1.0 0:0.0 0:0.0 1:0.0 0:235.0 12:0.0 0:0.0 0:0.0 0:0.0 
0.4222745019942522 18:0.0 9:0.0 106:1468.0 0:0.0 0:0.0 0:0.0 0:0.0 0:0.0 0:0.0 0:0.0 0:0.0 1:1.0 0:0.0 0:0.0 1:0.0 0:117.0 1:0.0 0:0.0 0:0.0 0:0.0 
0.5 0:0.0 3:0.0 286:1423.0 0:0.0 0:0.0 0:1.0 0:0.0 0:0.0 0:0.0 0:0.0 0:0.0 16:16.0 0:0.0 0:0.0 1:0.0 0:64.0 255:1.0 0:0.0 0:0.0 0:0.0 
0.4222745019942522 0:0.0 15:0.0 749:330.0 0:0.0 0:0.0 0:1.0 0:0.0 0:0.0 0:0.0 0:0.0 0:0.0 1:1.0 0:0.0 0:0.0 1:0.0 0:27.0 129:1.0 0:0.0 0:0.0 0:0.0 
0.4222745019942522 0:0.0 3:0.0 337:3360.0 0:0.0 0:0.0 0:1.0 0:0.0 0:0.0 0:0.0 0:0.0 0:0.0 6:6.0 0:0.0 0:0.0 1:0.0 0:255.0 255:1.0 0:0.0 0:0.0 0:0.0 
0.4222745019942522 0:0.0 15:0.0 729:328.0 0:0.0 0:0.0 0:1.0 0:0.0 0:0.0 0:0.0 0:0.0 0:0.0 1:1.0 0:0.0 0:0.0 1:0.0 0:106.0 156:0.0 0:0.0 0:0.0 0:0.0 
1.0 0:0.0 3:2.0 0:0.0 0:0.0 0:0.0 0:0.0 0:0.0 0:0.0 0:0.0 0:0.0 0:0.0 1:1.0 0:0.0 1:1.0 1:0.0 0:7.0 255:1.0 0:0.0 0:0.0 0:1.0 
0.4222745019942522 409:0.0 9:0.0 279:9598.0 0:0.0 0:0.0 0:1.0 2:0.0 0:0.0 0:0.0 0:0.0 0:0.0 1:1.0 0:0.0 0:0.0 1:0.0 0:251.0 113:0.0 0:0.0 0:1.0 1:0.0 
0.5 0:0.0 3:0.0 281:1951.0 0:0.0 0:0.0 0:1.0 0:0.0 0:0.0 0:0.0 0:0.0 0:0.0 30:31.0 0:0.0 0:0.0 1:0.0 0:77.0 255:1.0 0:0.0 0:0.0 0:0.0 
1.0 0:1.0 11:0.0 42:42.0 0:0.0 0:0.0 0:0.0 0:0.0 0:0.0 0:0.0 0:0.0 0:0.0 4:6.0 0:0.0 0:0.0 1:0.0 1:255.0 245:1.0 0:0.0 0:0.0 0:0.0 
0.4222745019942522 0:0.0 3:0.0 263:453.0 0:0.0 0:0.0 0:1.0 0:0.0 0:0.0 0:0.0 0:0.0 0:0.0 15:15.0 0:0.0 0:0.0 1:0.0 0:255.0 255:1.0 0:0.0 0:0.0 0:0.0 
1.0 0:0.0 22:5.0 0:0.0 0:0.0 0:0.0 0:0.0 0:0.0 0:0.0 0:0.0 0:0.0 0:0.0 1:1.0 0:0.0 1:1.0 1:0.0 0:212.0 43:0.0 0:0.0 0:0.0 0:0.0 
0.4222745019942522 0:0.0 3:0.0 283:1980.0 0:0.0 0:0.0 0:1.0 0:0.0 0:0.0 0:0.0 0:0.0 0:0.0 18:18.0 0:0.0 0:0.0 1:0.0 0:18.0 255:1.0 0:0.0 0:0.0 0:0.0 
1.0 0:1.0 1:0.0 147:0.0 0:0.0 0:0.0 0:0.0 0:0.0 0:0.0 0:0.0 0:0.0 0:0.0 3:1.0 0:0.0 0:0.0 0:1.0 0:255.0 1:0.0 1:1.0 0:0.0 0:0.0 
0.4222745019942522 0:0.0 0:0.0 567:0.0 0:0.0 0:0.0 0:0.0 0:0.0 0:0.0 0:0.0 0:0.0 0:0.0 1:1.0 0:0.0 0:0.0 1:0.0 0:53.0 38:0.0 0:0.0 0:0.0 0:0.0 
0.9454152335189933 0:0.0 15:1.0 0:0.0 0:0.0 0:0.0 0:0.0 0:0.0 0:0.0 0:0.0 0:0.0 0:0.0 2:2.0 1:1.0 0:0.0 1:0.0 0:160.0 101:0.0 0:0.0 0:0.0 0:0.0 
0.4222745019942522 0:0.0 0:0.0 10389:0.0 0:0.0 0:0.0 0:1.0 0:0.0 0:0.0 0:0.0 0:0.0 0:0.0 1:1.0 0:0.0 0:0.0 1:0.0 0:255.0 81:0.0 0:0.0 0:0.0 0:0.0 
0.4222745019942522 0:0.0 3:0.0 344:573.0 0:0.0 0:0.0 0:1.0 0:0.0 0:0.0 0:0.0 0:0.0 0:0.0 28:60.0 0:0.0 0:0.0 1:0.0 0:255.0 255:1.0 0:0.0 0:0.0 0:0.0 
1.0 0:1.0 2:0.0 105:146.0 0:0.0 0:0.0 0:0.0 0:0.0 0:0.0 0:0.0 0:0.0 0:0.0 3:2.0 0:0.0 0:0.0 1:1.0 0:255.0 239:1.0 0:0.0 0:0.0 0:0.0 
0.4222745019942522 1:0.0 15:0.0 1080:327.0 0:0.0 0:0.0 0:1.0 0:0.0 0:0.0 0:0.0 0:0.0 0:0.0 1:2.0 0:0.0 0:0.0 1:0.0 1:202.0 154:1.0 0:0.0 0:0.0 0:0.0 
0.4222745019942522 0:0.0 15:0.0 657:326.0 0:0.0 0:0.0 0:1.0 0:0.0 0:0.0 0:0.0 0:0.0 0:0.0 2:1.0 0:0.0 0:0.0 1:1.0 0:255.0 11:0.0 1:0.0 0:0.0 0:0.0 
0.4222745019942522 0:0.0 3:0.0 261:15455.0 0:0.0 0:0.0 0:1.0 0:0.0 0:0.0 0:0.0 0:0.0 0:0.0 22:22.0 0:0.0 0:0.0 1:0.0 0:255.0 255:1.0 0:0.0 0:0.0 0:0.0 
1.0 0:1.0 11:0.0 33:0.0 0:0.0 0:0.0 0:0.0 0:0.0 0:0.0 0:0.0 0:0.0 0:0.0 8:8.0 0:0.0 0:0.0 1:0.0 0:255.0 36:0.0 0:0.0 0:0.0 0:0.0 
1.0 0:1.0 11:0.0 44:70.0 0:0.0 0:0.0 0:0.0 0:0.0 0:0.0 0:0.0 0:0.0 0:0.0 195:197.0 0:0.0 0:0.0 1:0.0 0:255.0 234:1.0 0:0.0 0:0.0 0:0.0 
0.4222745019942522 0:0.0 3:0.0 332:2844.0 0:0.0 0:0.0 0:1.0 0:0.0 0:0.0 0:0.0 0:0.0 0:0.0 14:14.0 0:0.0 0:0.0 1:0.0 0:142.0 255:1.0 0:0.0 0:0.0 0:0.0 
0.4222745019942522 1:0.0 15:0.0 978:334.0 0:0.0 0:0.0 0:1.0 0:0.0 0:0.0 0:0.0 0:0.0 0:0.0 1:3.0 0:0.0 0:0.0 1:0.0 1:128.0 164:1.0 0:0.0 0:0.0 0:0.0 
0.4222745001986109 0:0.0 3:0.0 296:5670.0 0:0.0 0:0.0 0:1.0 0:0.0 0:0.0 0:0.0 0:0.0 0:0.0 10:10.0 0:0.0 0:0.0 1:0.0 0:69.0 255:1.0 0:0.0 0:0.0 0:0.0 
1.0 0:1.0 44:0.0 48:48.0 0:0.0 0:0.0 0:0.0 0:0.0 0:0.0 0:0.0 0:0.0 0:0.0 1:1.0 0:0.0 0:0.0 1:0.0 0:42.0 23:1.0 0:1.0 0:0.0 0:0.0 
1.0 0:0.0 3:2.0 0:0.0 0:0.0 0:0.0 0:0.0 0:0.0 0:0.0 0:0.0 0:0.0 0:0.0 1:1.0 0:0.0 1:1.0 1:0.0 0:8.0 38:1.0 0:0.0 0:0.0 0:1.0 
0.5 0:0.0 3:0.0 294:3327.0 0:0.0 0:0.0 0:1.0 0:0.0 0:0.0 0:0.0 0:0.0 0:0.0 1:19.0 0:0.0 0:0.0 1:0.0 0:57.0 255:1.0 0:0.0 0:0.0 0:0.0 
0.4222745001986109 0:0.0 0:0.0 319:0.0 0:0.0 0:0.0 0:0.0 0:0.0 0:0.0 0:0.0 0:0.0 0:0.0 2:2.0 0:0.0 0:0.0 1:0.0 0:6.0 2:0.0 1:0.0 0:0.0 0:0.0 
0.4218919910272113 0:0.0 15:0.0 1087:302.0 0:0.0 0:0.0 0:1.0 0:0.0 0:0.0 0:0.0 0:0.0 0:0.0 1:1.0 0:0.0 0:0.0 1:0.0 0:246.0 64:0.0 0:0.0 0:0.0 0:0.0 
1.0 0:0.0 3:2.0 0:0.0 0:0.0 0:0.0 0:0.0 0:0.0 0:0.0 0:0.0 0:0.0 0:0.0 1:1.0 0:0.0 1:1.0 1:0.0 0:12.0 255:1.0 0:0.0 0:0.0 0:1.0 
0.5 0:0.0 3:0.0 284:5921.0 0:0.0 0:0.0 0:1.0 0:0.0 0:0.0 0:0.0 0:0.0 0:0.0 1:1.0 0:0.0 0:0.0 1:0.0 0:49.0 255:1.0 0:0.0 0:0.0 0:0.0 
1.0 0:1.0 11:0.0 36:0.0 0:0.0 0:0.0 0:0.0 0:0.0 0:0.0 0:0.0 0:0.0 0:0.0 2:4.0 0:0.0 0:0.0 1:0.0 1:67.0 171:1.0 0:1.0 0:0.0 0:0.0 
1.0 0:1.0 11:0.0 43:43.0 0:0.0 0:0.0 0:0.0 0:0.0 0:0.0 0:0.0 0:0.0 0:0.0 122:188.0 0:0.0 0:0.0 1:0.0 0:255.0 255:1.0 0:0.0 0:0.0 0:0.0 
1.0 0:1.0 11:0.0 44:78.0 0:0.0 0:0.0 0:0.0 0:0.0 0:0.0 0:0.0 0:0.0 0:0.0 139:139.0 0:0.0 0:0.0 1:0.0 0:255.0 166:1.0 0:0.0 0:0.0 0:0.0 
0.4218919910272113 1:0.0 15:0.0 570:280.0 0:0.0 0:0.0 0:1.0 0:0.0 0:0.0 0:0.0 0:0.0 0:0.0 1:1.0 0:0.0 0:0.0 1:0.0 0:126.0 104:0.0 0:0.0 0:0.0 0:0.0 
1.0 0:1.0 1:0.0 146:0.0 0:0.0 0:0.0 0:0.0 0:0.0 0:0.0 0:0.0 0:0.0 0:0.0 3:1.0 0:0.0 0:0.0 0:1.0 0:255.0 1:0.0 1:1.0 0:0.0 0:0.0 
1.0 0:0.0 41:0.0 0:4.0 0:0.0 0:0.0 0:0.0 0:0.0 0:0.0 0:0.0 0:0.0 0:0.0 1:1.0 0:0.0 0:0.0 1:0.0 0:25.0 25:1.0 0:0.0 0:0.0 0:0.0 
1.0 0:0.0 0:0.0 276:0.0 0:0.0 0:0.0 0:0.0 0:0.0 0:0.0 0:0.0 0:0.0 0:0.0 1:1.0 0:0.0 0:0.0 1:0.0 0:76.0 24:0.0 0:0.0 0:0.0 0:0.0 
1.0 0:1.0 11:0.0 44:139.0 0:0.0 0:0.0 0:0.0 0:0.0 0:0.0 0:0.0 0:0.0 0:0.0 77:157.0 0:0.0 0:0.0 1:0.0 0:255.0 242:1.0 0:0.0 0:0.0 0:0.0 
0.42202126097143816 7805:0.0 9:0.0 1828:148722.0 0:0.0 0:1.0 2:1.0 19:0.0 1:10.0 8:0.0 0:0.0 0:0.0 1:1.0 0:0.0 0:0.0 1:0.0 0:51.0 7:0.0 0:0.0 0:0.0 0:0.0 
1.0 0:1.0 2:0.0 105:146.0 0:0.0 0:0.0 0:0.0 0:0.0 0:0.0 0:0.0 0:0.0 0:0.0 7:1.0 0:0.0 0:0.0 0:0.0 0:255.0 226:1.0 0:0.0 0:0.0 0:0.0 
1.0 0:0.0 3:2.0 0:0.0 0:0.0 0:0.0 0:0.0 0:0.0 0:0.0 0:0.0 0:0.0 0:0.0 1:1.0 0:0.0 1:1.0 1:0.0 0:12.0 255:1.0 0:0.0 0:0.0 0:0.0 
0.42202126097143816 0:0.0 3:0.0 288:2881.0 0:0.0 0:0.0 0:1.0 0:0.0 0:0.0 0:0.0 0:0.0 0:0.0 14:16.0 0:0.0 0:0.0 1:0.0 0:14.0 255:1.0 0:0.0 0:0.0 0:0.0 
1.0 0:0.0 3:0.0 279:494.0 0:0.0 0:0.0 0:1.0 0:0.0 0:0.0 0:0.0 0:0.0 0:0.0 2:2.0 0:0.0 0:0.0 1:0.0 0:255.0 255:1.0 0:0.0 0:0.0 0:0.0 
0.04371274513598156 0:0.0 0:0.0 192:0.0 0:0.0 0:0.0 0:1.0 0:0.0 0:0.0 0:0.0 0:0.0 0:0.0 2:3.0 0:0.0 0:0.0 1:0.0 1:255.0 115:0.0 0:0.0 0:0.0 0:0.0 
0.42189455552845107 10:0.0 15:0.0 1330:282.0 0:0.0 0:0.0 0:1.0 0:0.0 0:0.0 0:0.0 0:0.0 0:0.0 1:1.0 0:0.0 0:0.0 1:0.0 0:255.0 142:1.0 0:0.0 0:0.0 0:0.0 
1.0 0:0.0 3:0.0 271:3582.0 0:0.0 0:0.0 0:1.0 0:0.0 0:0.0 0:0.0 0:0.0 0:0.0 12:12.0 0:0.0 0:0.0 1:0.0 0:12.0 255:1.0 0:0.0 0:0.0 0:0.0 
0.42214745029441064 0:0.0 0:0.0 852:0.0 0:0.0 0:0.0 0:0.0 0:0.0 0:0.0 0:0.0 0:0.0 0:0.0 6:6.0 0:0.0 0:0.0 1:0.0 0:219.0 39:0.0 0:0.0 0:0.0 0:0.0 
0.42224664387405836 0:0.0 3:0.0 314:4137.0 0:0.0 0:0.0 0:1.0 0:0.0 0:0.0 0:0.0 0:0.0 0:0.0 7:7.0 0:0.0 0:0.0 1:0.0 0:255.0 255:1.0 0:0.0 0:0.0 0:0.0 
0.42224725930416057 0:0.0 15:0.0 857:327.0 0:0.0 0:0.0 0:1.0 0:0.0 0:0.0 0:0.0 0:0.0 0:0.0 1:1.0 0:0.0 0:0.0 1:0.0 0:173.0 132:1.0 0:0.0 0:0.0 0:0.0 
1.0 0:1.0 11:0.0 46:46.0 0:0.0 0:0.0 0:0.0 0:0.0 0:0.0 0:0.0 0:0.0 0:0.0 215:215.0 0:0.0 0:0.0 1:0.0 0:255.0 250:1.0 0:0.0 0:0.0 0:0.0 
1.0 0:1.0 2:0.0 105:146.0 0:0.0 0:0.0 0:0.0 0:0.0 0:0.0 0:0.0 0:0.0 0:0.0 1:1.0 0:0.0 0:0.0 1:0.0 0:229.0 217:1.0 0:0.0 0:0.0 0:0.0 
0.4219148760398843 5784:1.0 1:0.0 147:105.0 0:0.0 0:0.0 0:0.0 0:0.0 0:0.0 0:0.0 0:0.0 0:0.0 1:1.0 0:0.0 0:0.0 1:0.0 0:255.0 3:0.0 1:1.0 0:0.0 0:0.0 
0.42159963703479153 0:0.0 3:0.0 335:1212.0 0:0.0 0:0.0 0:1.0 0:0.0 0:0.0 0:0.0 0:0.0 0:0.0 3:3.0 0:0.0 0:0.0 1:0.0 0:7.0 255:1.0 0:0.0 0:0.0 0:0.0 
0.42159963703479153 0:0.0 3:0.0 339:241.0 0:0.0 0:0.0 0:1.0 0:0.0 0:0.0 0:0.0 0:0.0 0:0.0 1:1.0 0:0.0 0:0.0 1:0.0 0:68.0 255:1.0 0:0.0 0:0.0 0:0.0 
0.42159963703479153 0:0.0 3:0.0 317:3245.0 0:0.0 0:0.0 0:1.0 0:0.0 0:0.0 0:0.0 0:0.0 0:0.0 4:4.0 0:0.0 0:0.0 1:0.0 0:251.0 255:1.0 0:0.0 0:0.0 0:0.0 
1.0 0:1.0 11:0.0 42:131.0 0:0.0 0:0.0 0:0.0 0:0.0 0:0.0 0:0.0 0:0.0 0:0.0 80:160.0 0:0.0 0:0.0 1:0.0 0:255.0 254:1.0 0:0.0 0:0.0 0:0.0 
0.42145678449208496 0:0.0 15:0.0 986:368.0 0:0.0 0:0.0 0:1.0 0:0.0 0:0.0 0:0.0 0:0.0 0:0.0 1:1.0 0:0.0 0:0.0 1:0.0 0:76.0 169:1.0 0:0.0 0:0.0 0:0.0 
0.42197593163603514 0:0.0 3:0.0 405:23786.0 0:0.0 0:0.0 0:1.0 0:0.0 0:0.0 0:0.0 0:0.0 0:0.0 1:1.0 0:0.0 0:0.0 1:0.0 0:9.0 255:1.0 0:0.0 0:0.0 0:0.0 
0.42186889038277414 0:0.0 15:0.0 785:327.0 0:0.0 0:0.0 0:1.0 0:0.0 0:0.0 0:0.0 0:0.0 0:0.0 1:1.0 0:0.0 0:0.0 1:0.0 0:50.0 70:1.0 0:0.0 0:0.0 0:0.0 
1.0 0:0.0 3:0.0 258:4302.0 0:0.0 0:0.0 0:1.0 0:0.0 0:0.0 0:0.0 0:0.0 0:0.0 1:1.0 0:0.0 0:0.0 1:0.0 0:31.0 34:1.0 0:0.0 0:0.0 0:0.0 
0.42215371499288323 0:0.0 3:0.0 318:2649.0 0:0.0 0:0.0 0:1.0 0:0.0 0:0.0 0:0.0 0:0.0 0:0.0 5:5.0 0:0.0 0:0.0 1:0.0 0:5.0 255:1.0 0:0.0 0:0.0 0:0.0 
0.42188492495623525 542:1.0 11:0.0 17:42.0 0:0.0 0:0.0 0:0.0 0:0.0 0:0.0 0:0.0 0:0.0 0:0.0 1:1.0 0:0.0 0:0.0 1:0.0 0:255.0 224:1.0 0:0.0 0:0.0 0:0.0 
1.0 0:1.0 11:0.0 29:29.0 0:0.0 0:0.0 0:0.0 0:0.0 0:0.0 0:0.0 0:0.0 0:0.0 1:3.0 0:0.0 0:0.0 1:0.0 1:255.0 253:1.0 0:0.0 0:0.0 0:0.0 
1.0 0:1.0 2:0.0 105:147.0 0:0.0 0:0.0 0:0.0 0:0.0 0:0.0 0:0.0 0:0.0 0:0.0 1:1.0 0:0.0 0:0.0 1:0.0 0:155.0 143:1.0 0:0.0 0:0.0 0:0.0 
1.0 0:0.0 3:0.0 292:13206.0 0:0.0 0:0.0 0:1.0 0:0.0 0:0.0 0:0.0 0:0.0 0:0.0 5:5.0 0:0.0 0:0.0 1:0.0 0:5.0 255:1.0 0:0.0 0:0.0 0:0.0 
0.42193199055082353 0:0.0 3:0.0 310:788.0 0:0.0 0:0.0 0:1.0 0:0.0 0:0.0 0:0.0 0:0.0 0:0.0 3:3.0 0:0.0 0:0.0 1:0.0 0:255.0 255:1.0 0:0.0 0:0.0 0:0.0 
1.0 0:1.0 11:0.0 44:128.0 0:0.0 0:0.0 0:0.0 0:0.0 0:0.0 0:0.0 0:0.0 0:0.0 4:84.0 0:0.0 0:0.0 1:0.0 0:255.0 205:1.0 0:0.0 0:0.0 0:0.0 
1.0 0:1.0 1:0.0 145:0.0 0:0.0 0:0.0 0:0.0 0:0.0 0:0.0 0:0.0 0:0.0 0:0.0 3:1.0 0:0.0 0:0.0 0:1.0 0:255.0 1:0.0 1:1.0 0:0.0 0:0.0 
1.0 0:1.0 11:0.0 45:45.0 0:0.0 0:0.0 0:0.0 0:0.0 0:0.0 0:0.0 0:0.0 0:0.0 167:167.0 0:0.0 0:0.0 1:0.0 0:255.0 254:1.0 0:0.0 0:0.0 0:0.0 
0.4218996286064565 2:0.0 15:0.0 1551:362.0 0:0.0 0:0.0 0:1.0 0:0.0 0:0.0 0:0.0 0:0.0 0:0.0 1:2.0 0:0.0 0:0.0 1:0.0 1:3.0 135:1.0 1:0.0 0:0.0 0:0.0 
0.42150204362160715 4:0.0 15:0.0 1308:328.0 0:0.0 0:0.0 0:1.0 0:0.0 0:0.0 0:0.0 0:0.0 0:0.0 1:1.0 0:0.0 0:0.0 1:0.0 0:2.0 14:1.0 0:1.0 0:0.0 0:0.0 
0.42150204362160715 0:0.0 3:0.0 356:1125.0 0:0.0 0:0.0 0:1.0 0:0.0 0:0.0 0:0.0 0:0.0 0:0.0 3:3.0 0:0.0 0:0.0 1:0.0 0:36.0 255:1.0 0:0.0 0:0.0 0:0.0 
0.42150204362160715 0:0.0 3:0.0 364:6914.0 0:0.0 0:0.0 0:1.0 0:0.0 0:0.0 0:0.0 0:0.0 0:0.0 13:13.0 0:0.0 0:0.0 1:0.0 0:255.0 255:1.0 0:0.0 0:0.0 0:0.0 
0.4214789312463031 0:0.0 3:0.0 331:776.0 0:0.0 0:0.0 0:1.0 0:0.0 0:0.0 0:0.0 0:0.0 0:0.0 10:14.0 0:0.0 0:0.0 1:0.0 0:255.0 255:1.0 0:0.0 0:0.0 0:0.0 
1.0 0:0.0 3:0.0 300:1841.0 0:0.0 0:0.0 0:1.0 0:0.0 0:0.0 0:0.0 0:0.0 0:0.0 43:43.0 0:0.0 0:0.0 1:0.0 0:43.0 255:1.0 0:0.0 0:0.0 0:0.0 
0.42189546640775355 0:0.0 3:0.0 316:1260.0 0:0.0 0:0.0 0:1.0 0:0.0 0:0.0 0:0.0 0:0.0 0:0.0 3:9.0 0:0.0 0:0.0 1:0.0 1:255.0 255:1.0 0:0.0 0:0.0 0:0.0 
1.0 0:1.0 11:0.0 44:136.0 0:0.0 0:0.0 0:0.0 0:0.0 0:0.0 0:0.0 0:0.0 0:0.0 224:300.0 0:0.0 0:0.0 1:0.0 0:255.0 253:1.0 0:0.0 0:0.0 0:0.0 
0.42189546640775355 30:0.0 22:0.0 1458:4152.0 0:0.0 0:30.0 0:1.0 0:0.0 0:0.0 0:0.0 0:0.0 0:1.0 1:1.0 0:0.0 0:0.0 1:0.0 0:158.0 40:0.0 0:0.0 0:0.0 0:0.0 
0.421876986556555 10455:1.0 1:0.0 146:105.0 0:0.0 0:0.0 0:0.0 0:0.0 0:0.0 0:0.0 0:0.0 0:0.0 4:2.0 0:0.0 0:0.0 1:1.0 0:255.0 2:0.0 1:1.0 0:0.0 0:0.0 
0.421876986556555 10326:1.0 1:0.0 146:105.0 0:0.0 0:0.0 0:0.0 0:0.0 0:0.0 0:0.0 0:0.0 0:0.0 5:2.0 0:0.0 0:0.0 0:1.0 0:255.0 2:0.0 1:1.0 0:0.0 0:0.0 
1.0 0:0.0 15:5.0 13794:2966.0 0:0.0 0:0.0 0:1.0 0:0.0 0:0.0 0:0.0 0:0.0 0:0.0 2:2.0 0:0.0 1:1.0 1:0.0 0:170.0 96:0.0 0:0.0 0:0.0 0:0.0 
0.4220212609714381 0:0.0 15:0.0 911:325.0 0:0.0 0:0.0 0:1.0 0:0.0 0:0.0 0:0.0 0:0.0 0:0.0 2:1.0 0:0.0 0:0.0 1:1.0 0:18.0 161:1.0 0:0.0 0:0.0 0:0.0 
1.0 0:0.0 3:0.0 280:3332.0 0:0.0 0:0.0 0:1.0 0:0.0 0:0.0 0:0.0 0:0.0 0:0.0 2:2.0 0:0.0 0:0.0 1:0.0 0:10.0 255:1.0 0:0.0 0:0.0 0:0.0 
0.42213610306016147 0:0.0 10:0.0 10:139.0 0:0.0 0:0.0 0:0.0 0:0.0 0:0.0 0:0.0 0:0.0 0:0.0 1:1.0 0:0.0 0:0.0 1:0.0 0:126.0 5:0.0 0:0.0 0:0.0 0:0.0 
1.0 0:0.0 3:0.0 281:1745.0 0:0.0 0:0.0 0:1.0 0:0.0 0:0.0 0:0.0 0:0.0 0:0.0 2:2.0 0:0.0 0:0.0 1:0.0 0:39.0 255:1.0 0:0.0 0:0.0 0:0.0 
0.42189455552845107 0:0.0 3:0.0 297:1285.0 0:0.0 0:0.0 0:1.0 0:0.0 0:0.0 0:0.0 0:0.0 0:0.0 8:8.0 0:0.0 0:0.0 1:0.0 0:8.0 255:1.0 0:0.0 0:0.0 0:0.0 
1.0 0:1.0 11:0.0 43:72.0 0:0.0 0:0.0 0:0.0 0:0.0 0:0.0 0:0.0 0:0.0 0:0.0 263:264.0 0:0.0 0:0.0 1:0.0 0:255.0 242:1.0 0:0.0 0:0.0 0:0.0 
1.0 0:0.0 3:2.0 0:0.0 0:0.0 0:0.0 0:0.0 0:0.0 0:0.0 0:0.0 0:0.0 0:0.0 1:2.0 0:0.0 1:1.0 1:0.0 1:43.0 255:1.0 0:0.0 0:0.0 0:1.0 
1.0 0:1.0 1:0.0 516:4.0 0:0.0 0:0.0 0:0.0 0:0.0 0:0.0 0:0.0 0:0.0 0:0.0 151:151.0 0:0.0 0:0.0 1:0.0 0:151.0 151:1.0 0:1.0 0:0.0 0:0.0 
0.42189546640775355 0:0.0 15:0.0 676:328.0 0:0.0 0:0.0 0:1.0 0:0.0 0:0.0 0:0.0 0:0.0 0:0.0 1:1.0 0:0.0 0:0.0 1:0.0 0:119.0 187:1.0 0:0.0 0:0.0 0:0.0 
1.0 0:0.0 3:0.0 334:455.0 0:0.0 0:0.0 0:1.0 0:0.0 0:0.0 0:0.0 0:0.0 0:0.0 7:9.0 0:0.0 0:0.0 1:0.0 0:115.0 255:1.0 0:0.0 0:0.0 0:0.0 
0.4218919910272112 0:0.0 3:0.0 256:4486.0 0:0.0 0:0.0 0:1.0 0:0.0 0:0.0 0:0.0 0:0.0 0:0.0 1:1.0 0:0.0 0:0.0 1:0.0 0:255.0 250:1.0 0:0.0 0:0.0 0:0.0 
1.0 0:1.0 11:0.0 46:136.0 0:0.0 0:0.0 0:0.0 0:0.0 0:0.0 0:0.0 0:0.0 0:0.0 210:210.0 0:0.0 0:0.0 1:0.0 0:135.0 96:1.0 0:0.0 0:0.0 0:0.0 
1.0 0:1.0 11:0.0 41:117.0 0:0.0 0:0.0 0:0.0 0:0.0 0:0.0 0:0.0 0:0.0 0:0.0 43:43.0 0:0.0 0:0.0 1:0.0 0:255.0 254:1.0 0:0.0 0:0.0 0:0.0 
1.0 0:1.0 11:0.0 44:70.0 0:0.0 0:0.0 0:0.0 0:0.0 0:0.0 0:0.0 0:0.0 0:0.0 127:127.0 0:0.0 0:0.0 1:0.0 0:255.0 224:1.0 0:0.0 0:0.0 0:0.0 
0.4218996286064565 202:0.0 9:0.0 209:1824.0 0:0.0 0:0.0 0:1.0 5:0.0 0:0.0 0:0.0 0:0.0 0:0.0 1:1.0 0:0.0 0:0.0 1:0.0 0:129.0 12:0.0 0:0.0 0:0.0 0:0.0 
0.4217850801898934 0:0.0 1:0.0 5891:0.0 0:0.0 0:0.0 0:1.0 0:0.0 0:0.0 0:0.0 0:0.0 0:0.0 13:1.0 0:0.0 0:0.0 0:0.0 0:83.0 1:0.0 0:0.0 0:0.0 0:0.0 
1.0 0:0.0 3:0.0 276:1767.0 0:0.0 0:0.0 0:1.0 0:0.0 0:0.0 0:0.0 0:0.0 0:0.0 2:6.0 0:0.0 0:0.0 1:0.0 0:29.0 255:1.0 0:0.0 0:0.0 0:0.0 
0.4221305969921484 0:0.0 3:0.0 312:422.0 0:0.0 0:0.0 0:1.0 0:0.0 0:0.0 0:0.0 0:0.0 0:0.0 11:15.0 0:0.0 0:0.0 1:0.0 0:255.0 255:1.0 0:0.0 0:0.0 0:0.0 
1.0 0:1.0 11:0.0 29:0.0 0:0.0 0:0.0 0:0.0 0:0.0 0:0.0 0:0.0 0:0.0 0:0.0 2:2.0 0:0.0 0:0.0 1:1.0 1:114.0 44:0.0 0:0.0 0:0.0 0:0.0 
0.42186793829807934 0:0.0 0:0.0 13239:0.0 0:0.0 0:0.0 0:1.0 0:0.0 0:0.0 0:0.0 0:0.0 0:0.0 4:4.0 0:0.0 0:0.0 1:0.0 0:100.0 63:0.0 0:0.0 0:0.0 0:0.0 
0.422299552053925 0:0.0 3:0.0 324:10647.0 0:0.0 0:0.0 0:1.0 0:0.0 0:0.0 0:0.0 0:0.0 0:0.0 2:2.0 0:0.0 0:0.0 1:0.0 0:11.0 14:1.0 0:0.0 0:0.0 0:0.0 
0.4222745019942522 0:0.0 3:0.0 355:657.0 0:0.0 0:0.0 0:1.0 0:0.0 0:0.0 0:0.0 0:0.0 0:0.0 16:16.0 0:0.0 0:0.0 1:0.0 0:255.0 255:1.0 0:0.0 0:0.0 0:0.0 
0.4222745019942522 0:0.0 3:0.0 325:753.0 0:0.0 0:0.0 0:1.0 0:0.0 0:0.0 0:0.0 0:0.0 0:0.0 7:9.0 0:0.0 0:0.0 1:0.0 0:255.0 255:1.0 0:0.0 0:0.0 0:0.0 
0.4222745019942522 4:0.0 15:0.0 886:326.0 0:0.0 0:0.0 0:1.0 0:0.0 0:0.0 0:0.0 0:0.0 0:0.0 1:1.0 0:0.0 0:0.0 1:0.0 0:135.0 60:0.0 0:0.0 0:0.0 0:0.0 
0.42215752910294935 0:0.0 3:0.0 319:3432.0 0:0.0 0:0.0 0:1.0 0:0.0 0:0.0 0:0.0 0:0.0 0:0.0 9:9.0 0:0.0 0:0.0 1:0.0 0:9.0 255:1.0 0:0.0 0:0.0 0:0.0 
0.4221579449730177 1:0.0 15:0.0 1451:330.0 0:0.0 0:0.0 0:1.0 0:0.0 0:0.0 0:0.0 0:0.0 0:0.0 1:2.0 0:0.0 0:0.0 1:0.0 1:110.0 78:1.0 0:0.0 0:0.0 0:0.0 
0.4222745001986109 3047:1.0 1:0.0 146:105.0 0:0.0 0:0.0 0:0.0 0:0.0 0:0.0 0:0.0 0:0.0 0:0.0 1:1.0 0:0.0 0:0.0 1:0.0 0:255.0 1:0.0 1:1.0 0:0.0 0:0.0 
0.4222745001986109 1327:1.0 1:0.0 146:105.0 0:0.0 0:0.0 0:0.0 0:0.0 0:0.0 0:0.0 0:0.0 0:0.0 3:1.0 0:0.0 0:0.0 0:1.0 0:255.0 1:0.0 1:1.0 0:0.0 0:0.0 
0.4222745001986109 0:0.0 0:0.0 383:0.0 0:0.0 0:0.0 0:1.0 0:0.0 0:0.0 0:0.0 0:0.0 0:0.0 3:2.0 0:0.0 0:0.0 1:1.0 0:37.0 29:0.0 0:0.0 0:0.0 0:0.0 
0.4222745001986109 0:0.0 3:0.0 278:6546.0 0:0.0 0:0.0 0:1.0 0:0.0 0:0.0 0:0.0 0:0.0 0:0.0 7:7.0 0:0.0 0:0.0 1:0.0 0:7.0 255:1.0 0:0.0 0:0.0 0:0.0 
1.0 0:0.0 3:0.0 277:2253.0 0:0.0 0:0.0 0:1.0 0:0.0 0:0.0 0:0.0 0:0.0 0:0.0 17:17.0 0:0.0 0:0.0 1:0.0 0:17.0 255:1.0 0:0.0 0:0.0 0:0.0 
0.4222745019942522 860:1.0 1:0.0 147:105.0 0:0.0 0:0.0 0:0.0 0:0.0 0:0.0 0:0.0 0:0.0 0:0.0 1:1.0 0:0.0 0:0.0 1:0.0 0:255.0 1:0.0 1:1.0 0:0.0 0:0.0 
0.42191113241706724 0:0.0 3:0.0 367:5199.0 0:0.0 0:0.0 0:1.0 0:0.0 0:0.0 0:0.0 0:0.0 0:0.0 4:4.0 0:0.0 0:0.0 1:0.0 0:108.0 255:1.0 0:0.0 0:0.0 0:0.0 
1.0 0:0.0 3:0.0 257:23051.0 0:0.0 0:0.0 0:1.0 0:0.0 0:0.0 0:0.0 0:0.0 0:0.0 1:4.0 0:0.0 0:0.0 1:0.0 1:53.0 255:1.0 0:0.0 0:0.0 0:0.0 
1.0 0:1.0 11:0.0 44:44.0 0:0.0 0:0.0 0:0.0 0:0.0 0:0.0 0:0.0 0:0.0 0:0.0 106:105.0 0:0.0 0:0.0 1:0.0 0:255.0 254:1.0 0:0.0 0:0.0 0:0.0 
1.0 0:1.0 11:0.0 128:44.0 0:0.0 0:0.0 0:0.0 0:0.0 0:0.0 0:0.0 0:0.0 0:0.0 68:68.0 0:0.0 0:0.0 1:0.0 0:255.0 240:1.0 0:0.0 0:0.0 0:0.0 
0.4222745019942522 0:0.0 15:0.0 775:331.0 0:0.0 0:0.0 0:1.0 0:0.0 0:0.0 0:0.0 0:0.0 0:0.0 1:1.0 0:0.0 0:0.0 1:0.0 0:120.0 105:1.0 0:0.0 0:0.0 0:0.0 
0.4222745019942522 475:0.0 3:0.0 314:266.0 0:0.0 0:0.0 0:1.0 0:0.0 0:0.0 0:0.0 0:0.0 0:0.0 11:12.0 0:0.0 0:0.0 1:0.0 0:255.0 239:1.0 0:0.0 0:0.0 0:0.0 
0.4222745019942522 8:0.0 15:0.0 525:335.0 0:0.0 0:0.0 0:1.0 0:0.0 0:0.0 0:0.0 0:0.0 0:0.0 1:2.0 0:0.0 0:0.0 1:0.0 1:67.0 178:1.0 0:0.0 0:0.0 0:0.0 
0.4214789312463031 27:0.0 22:0.0 1067:3081.0 0:0.0 0:22.0 0:1.0 0:0.0 0:0.0 0:0.0 0:0.0 0:1.0 1:1.0 0:0.0 0:0.0 1:0.0 0:254.0 70:0.0 0:0.0 0:0.0 0:0.0 
1.0 0:1.0 11:0.0 126:44.0 0:0.0 0:0.0 0:0.0 0:0.0 0:0.0 0:0.0 0:0.0 0:0.0 254:253.0 0:0.0 0:0.0 1:0.0 0:143.0 110:1.0 0:0.0 0:0.0 0:0.0 
0.4219728708093385 0:0.0 3:0.0 333:2547.0 0:0.0 0:0.0 0:1.0 0:0.0 0:0.0 0:0.0 0:0.0 0:0.0 4:4.0 0:0.0 0:0.0 1:0.0 0:255.0 255:1.0 0:0.0 0:0.0 0:0.0 
0.4222745019942522 0:0.0 0:0.0 4491:0.0 0:0.0 0:0.0 0:0.0 0:0.0 0:0.0 0:0.0 0:0.0 0:0.0 1:1.0 0:0.0 0:0.0 1:0.0 0:63.0 79:0.0 0:0.0 0:0.0 0:0.0 
1.0 0:0.0 3:2.0 0:0.0 0:0.0 0:0.0 0:0.0 0:0.0 0:0.0 0:0.0 0:0.0 0:0.0 1:1.0 0:0.0 1:1.0 1:0.0 0:8.0 255:1.0 0:0.0 0:0.0 0:0.0 
0.4222745019942522 2:0.0 15:0.0 1258:359.0 0:0.0 0:0.0 0:1.0 0:0.0 0:0.0 0:0.0 0:0.0 0:0.0 1:1.0 0:0.0 0:0.0 1:0.0 0:214.0 192:1.0 0:0.0 0:0.0 0:0.0 
1.0 0:1.0 11:0.0 42:65.0 0:0.0 0:0.0 0:0.0 0:0.0 0:0.0 0:0.0 0:0.0 0:0.0 104:104.0 0:0.0 0:0.0 1:0.0 0:255.0 245:1.0 0:0.0 0:0.0 0:0.0 
0.4222745019942522 5065:1.0 1:0.0 147:105.0 0:0.0 0:0.0 0:0.0 0:0.0 0:0.0 0:0.0 0:0.0 0:0.0 1:1.0 0:0.0 0:0.0 1:0.0 0:255.0 2:0.0 1:1.0 0:0.0 0:0.0 
1.0 0:1.0 11:0.0 44:72.0 0:0.0 0:0.0 0:0.0 0:0.0 0:0.0 0:0.0 0:0.0 0:0.0 256:256.0 0:0.0 0:0.0 1:0.0 0:255.0 254:1.0 0:0.0 0:0.0 0:0.0 
0.4222745019942522 0:0.0 20:0.0 13:40.0 0:0.0 0:0.0 0:0.0 0:0.0 0:0.0 0:0.0 0:0.0 0:0.0 1:1.0 0:0.0 0:0.0 1:0.0 0:100.0 3:0.0 0:0.0 1:0.0 0:0.0 
1.0 0:0.0 3:0.0 237:5193.0 0:0.0 0:0.0 0:1.0 0:0.0 0:0.0 0:0.0 0:0.0 0:0.0 1:48.0 0:0.0 0:0.0 1:0.0 0:1.0 216:1.0 0:1.0 0:0.0 0:0.0 
0.4222745019942522 0:0.0 3:0.0 301:2698.0 0:0.0 0:0.0 0:1.0 0:0.0 0:0.0 0:0.0 1:0.0 0:0.0 8:9.0 0:0.0 0:0.0 1:0.0 0:85.0 84:1.0 0:0.0 0:0.0 0:0.0 
0.4222745019942522 1985:1.0 1:0.0 147:105.0 0:0.0 0:0.0 0:0.0 0:0.0 0:0.0 0:0.0 0:0.0 0:0.0 1:1.0 0:0.0 0:0.0 1:0.0 0:255.0 2:0.0 1:1.0 0:0.0 0:0.0 
0.4222745019942522 0:0.0 0:0.0 641:0.0 0:0.0 0:0.0 0:1.0 0:0.0 0:0.0 0:0.0 0:0.0 0:0.0 2:2.0 0:0.0 0:0.0 1:0.0 0:62.0 55:0.0 0:0.0 0:0.0 0:0.0 
1.0 0:0.0 51:0.0 82:1.0 0:0.0 0:0.0 0:0.0 0:0.0 0:0.0 0:0.0 0:0.0 0:0.0 1:1.0 0:0.0 0:0.0 1:0.0 0:1.0 1:1.0 0:1.0 0:0.0 0:0.0 
0.4222745019942522 0:0.0 3:0.0 376:345.0 0:0.0 0:0.0 0:1.0 0:0.0 0:0.0 0:0.0 0:0.0 0:0.0 1:1.0 0:0.0 0:0.0 1:0.0 0:190.0 255:1.0 0:0.0 0:0.0 0:0.0 
0.4222745019942522 0:0.0 15:0.0 1053:329.0 0:0.0 0:0.0 0:1.0 0:0.0 0:0.0 0:0.0 0:0.0 0:0.0 1:1.0 0:0.0 0:0.0 1:0.0 0:67.0 177:1.0 0:0.0 0:0.0 0:0.0 
1.0 0:1.0 11:0.0 46:130.0 0:0.0 0:0.0 0:0.0 0:0.0 0:0.0 0:0.0 0:0.0 0:0.0 66:146.0 0:0.0 0:0.0 1:0.0 0:255.0 196:1.0 0:0.0 0:0.0 0:0.0 
1.0 0:1.0 11:0.0 45:119.0 0:0.0 0:0.0 0:0.0 0:0.0 0:0.0 0:0.0 0:0.0 0:0.0 148:147.0 0:0.0 0:0.0 1:0.0 0:255.0 254:1.0 0:0.0 0:0.0 0:0.0 
0.4222745019942522 1:0.0 15:0.0 1539:395.0 0:0.0 0:0.0 0:1.0 0:0.0 0:0.0 0:0.0 0:0.0 0:0.0 1:1.0 0:0.0 0:0.0 1:0.0 0:221.0 147:1.0 0:0.0 0:0.0 0:0.0 
0.4222745019942522 0:0.0 3:0.0 358:1758.0 0:0.0 0:0.0 0:1.0 0:0.0 0:0.0 0:0.0 0:0.0 0:0.0 1:1.0 0:0.0 0:0.0 1:0.0 0:255.0 255:1.0 0:0.0 0:0.0 0:0.0 
1.0 0:0.0 3:0.0 282:1227.0 0:0.0 0:0.0 0:1.0 0:0.0 0:0.0 0:0.0 0:0.0 0:0.0 2:32.0 0:0.0 0:0.0 1:0.0 0:175.0 175:1.0 0:0.0 0:0.0 0:0.0 
0.4222745019942522 0:0.0 3:0.0 323:1509.0 0:0.0 0:0.0 0:1.0 0:0.0 0:0.0 0:0.0 0:0.0 0:0.0 4:16.0 0:0.0 0:0.0 1:0.0 0:255.0 255:1.0 0:0.0 0:0.0 0:0.0 
1.0 0:1.0 2:0.0 105:105.0 0:0.0 0:0.0 0:0.0 0:0.0 0:0.0 0:0.0 0:0.0 0:0.0 1:1.0 0:0.0 0:0.0 1:0.0 0:114.0 76:1.0 0:0.0 0:0.0 0:0.0 
0.4222745019942522 0:0.0 3:0.0 329:303.0 0:0.0 0:0.0 0:1.0 0:0.0 0:0.0 0:0.0 0:0.0 0:0.0 10:33.0 0:0.0 0:0.0 1:0.0 0:59.0 255:1.0 0:0.0 0:0.0 0:0.0 
0.4222745019942522 0:0.0 15:0.0 788:328.0 0:0.0 0:0.0 0:1.0 0:0.0 0:0.0 0:0.0 0:0.0 0:0.0 1:1.0 0:0.0 0:0.0 1:0.0 0:45.0 29:1.0 0:0.0 0:0.0 0:0.0 
0.4222745019942522 0:0.0 3:0.0 311:4591.0 0:0.0 0:0.0 0:1.0 0:0.0 0:0.0 0:0.0 0:0.0 0:0.0 21:21.0 0:0.0 0:0.0 1:0.0 0:21.0 255:1.0 0:0.0 0:0.0 0:0.0 
0.4222745019942522 0:0.0 53:0.0 35:130.0 0:0.0 0:0.0 0:1.0 0:0.0 0:0.0 0:0.0 0:0.0 0:0.0 1:1.0 0:0.0 0:0.0 1:0.0 0:164.0 8:0.0 0:0.0 0:0.0 0:0.0 
0.4222745019942522 0:0.0 0:0.0 59:0.0 0:0.0 0:0.0 0:1.0 0:0.0 0:0.0 0:0.0 0:0.0 0:0.0 16:16.0 0:0.0 0:0.0 1:0.0 0:187.0 52:0.0 0:0.0 0:0.0 0:0.0 
0.4222745019942522 8:0.0 15:0.0 2544:333.0 0:0.0 0:0.0 0:1.0 0:0.0 0:0.0 0:0.0 0:0.0 0:0.0 1:1.0 0:0.0 0:0.0 1:0.0 0:152.0 189:1.0 0:0.0 0:0.0 0:0.0 
0.4222745019942522 0:0.0 3:0.0 327:6721.0 0:0.0 0:0.0 0:1.0 0:0.0 0:0.0 0:0.0 0:0.0 0:0.0 4:5.0 0:0.0 0:0.0 1:0.0 0:255.0 255:1.0 0:0.0 0:0.0 0:0.0 
0.4222745019942522 1:0.0 15:0.0 763:335.0 0:0.0 0:0.0 0:1.0 0:0.0 0:0.0 0:0.0 0:0.0 0:0.0 1:1.0 0:0.0 0:0.0 1:0.0 0:121.0 96:0.0 0:0.0 0:0.0 0:0.0 
0.9825262259691954 0:0.0 3:0.0 300:13038.0 0:0.0 0:0.0 0:1.0 0:0.0 0:0.0 0:0.0 0:0.0 0:0.0 1:1.0 0:0.0 0:0.0 1:0.0 0:49.0 255:1.0 0:0.0 0:0.0 0:0.0 
0.4222745019942522 5753:1.0 1:0.0 147:105.0 0:0.0 0:0.0 0:0.0 0:0.0 0:0.0 0:0.0 0:0.0 0:0.0 1:1.0 0:0.0 0:0.0 1:0.0 0:255.0 2:0.0 1:1.0 0:0.0 0:0.0 
0.4222745019942522 31:0.0 22:0.0 1221:3380.0 0:0.0 0:24.0 0:1.0 0:0.0 0:0.0 0:0.0 0:0.0 0:1.0 1:1.0 0:0.0 0:0.0 1:0.0 0:255.0 41:0.0 0:0.0 0:0.0 0:0.0 
0.4222745019942522 0:0.0 3:0.0 299:291.0 0:0.0 0:0.0 0:1.0 0:0.0 0:0.0 0:0.0 0:0.0 0:0.0 2:2.0 0:0.0 0:0.0 1:0.0 0:38.0 255:1.0 0:0.0 0:0.0 0:0.0 
0.42227018100024843 0:0.0 0:0.0 1874:0.0 0:0.0 0:0.0 0:1.0 0:0.0 0:0.0 0:0.0 0:0.0 0:0.0 9:9.0 0:0.0 0:0.0 1:0.0 0:151.0 30:0.0 0:0.0 0:0.0 0:0.0 
0.4215996370347916 0:0.0 15:0.0 1301:335.0 0:0.0 0:0.0 0:1.0 0:0.0 0:0.0 0:0.0 0:0.0 0:0.0 1:2.0 0:0.0 0:0.0 1:0.0 1:67.0 114:0.0 0:0.0 0:0.0 0:0.0 
1.0 0:1.0 11:0.0 43:132.0 0:0.0 0:0.0 0:0.0 0:0.0 0:0.0 0:0.0 0:0.0 0:0.0 216:292.0 0:0.0 0:0.0 1:0.0 0:255.0 253:1.0 0:0.0 0:0.0 0:0.0 
0.4213807632022869 0:0.0 3:0.0 330:256.0 0:0.0 0:0.0 0:1.0 0:0.0 0:0.0 0:0.0 0:0.0 0:0.0 4:4.0 0:0.0 0:0.0 1:0.0 0:193.0 255:1.0 0:0.0 0:0.0 0:0.0 
0.421456784492085 0:0.0 3:0.0 302:7497.0 0:0.0 0:0.0 0:1.0 0:0.0 0:0.0 0:0.0 0:0.0 0:0.0 26:26.0 0:0.0 0:0.0 1:0.0 0:255.0 255:1.0 0:0.0 0:0.0 0:0.0 
0.9219141917952205 0:0.0 3:0.0 284:307.0 0:0.0 0:0.0 0:1.0 0:0.0 0:0.0 0:0.0 0:0.0 0:0.0 2:29.0 0:0.0 0:0.0 1:0.0 0:255.0 255:1.0 0:0.0 0:0.0 0:0.0 
0.42193199055082353 1:0.0 15:0.0 1194:482.0 0:0.0 0:0.0 0:1.0 0:0.0 0:0.0 0:0.0 0:0.0 0:0.0 1:3.0 0:0.0 0:0.0 1:0.0 1:255.0 13:0.0 0:0.0 0:0.0 0:0.0 
0.42193199055082353 0:0.0 1:0.0 6601:0.0 0:0.0 0:0.0 0:1.0 0:0.0 0:0.0 0:0.0 0:0.0 0:0.0 21:1.0 0:0.0 0:0.0 0:0.0 0:173.0 1:0.0 0:0.0 0:0.0 0:0.0 
0.4214789312463031 2:0.0 15:0.0 1452:330.0 0:0.0 0:0.0 0:1.0 0:0.0 0:0.0 0:0.0 0:0.0 0:0.0 1:2.0 0:0.0 0:0.0 1:0.0 1:115.0 78:1.0 0:0.0 0:0.0 0:0.0 
0.4214789312463031 2:0.0 0:0.0 2194619:0.0 0:0.0 0:0.0 0:1.0 0:0.0 0:0.0 0:0.0 0:0.0 0:0.0 2:2.0 0:0.0 0:0.0 1:0.0 0:164.0 28:0.0 0:0.0 0:0.0 0:0.0 
1.0 0:1.0 11:0.0 42:42.0 0:0.0 0:0.0 0:0.0 0:0.0 0:0.0 0:0.0 0:0.0 0:0.0 8:18.0 0:0.0 0:0.0 1:0.0 0:255.0 245:1.0 0:0.0 0:0.0 0:0.0 
0.42188039887668854 0:0.0 3:0.0 336:1294.0 0:0.0 0:0.0 0:1.0 0:0.0 0:0.0 0:0.0 0:0.0 0:0.0 21:21.0 0:0.0 0:0.0 1:0.0 0:255.0 255:1.0 0:0.0 0:0.0 0:0.0 
0.42197287080933843 3:0.0 15:0.0 11436:1383.0 0:0.0 0:0.0 0:1.0 0:0.0 0:0.0 0:0.0 0:0.0 0:0.0 1:2.0 0:0.0 0:0.0 1:0.0 1:176.0 142:1.0 0:0.0 0:0.0 0:0.0 
1.0 0:1.0 1:0.0 516:4.0 0:0.0 0:0.0 0:0.0 0:0.0 0:0.0 0:0.0 0:0.0 0:0.0 191:191.0 0:0.0 0:0.0 1:0.0 0:191.0 191:1.0 0:1.0 0:0.0 0:0.0 
0.9218481857196881 0:0.0 3:0.0 286:3491.0 0:0.0 0:0.0 0:1.0 0:0.0 0:0.0 0:0.0 0:0.0 0:0.0 10:10.0 0:0.0 0:0.0 1:0.0 0:25.0 255:1.0 0:0.0 0:0.0 0:0.0 
0.4220224250115636 5:0.0 15:0.0 722:334.0 0:0.0 0:0.0 0:1.0 0:0.0 0:0.0 0:0.0 0:0.0 0:0.0 1:1.0 0:0.0 0:0.0 1:0.0 0:137.0 116:0.0 0:0.0 0:0.0 0:0.0 
0.37841792480968095 0:0.0 0:0.0 192:0.0 0:0.0 0:0.0 0:1.0 0:0.0 0:0.0 0:0.0 0:0.0 0:0.0 2:2.0 0:0.0 0:0.0 1:0.0 0:129.0 117:0.0 0:0.0 0:0.0 0:0.0 
0.9218879047702881 0:0.0 3:0.0 294:478.0 0:0.0 0:0.0 0:1.0 0:0.0 0:0.0 0:0.0 0:0.0 0:0.0 23:30.0 0:0.0 0:0.0 1:0.0 0:255.0 255:1.0 0:0.0 0:0.0 0:0.0 
0.4218991233960827 0:0.0 3:0.0 303:458.0 0:0.0 0:0.0 0:1.0 0:0.0 0:0.0 0:0.0 0:0.0 0:0.0 1:1.0 0:0.0 0:0.0 1:0.0 0:3.0 255:1.0 0:0.0 0:0.0 0:0.0 
1.0 0:1.0 11:0.0 44:126.0 0:0.0 0:0.0 0:0.0 0:0.0 0:0.0 0:0.0 0:0.0 0:0.0 74:152.0 0:0.0 0:0.0 1:0.0 0:255.0 196:1.0 0:0.0 0:0.0 0:0.0 
0.42145678449208496 4931:1.0 11:0.0 73:45.0 0:0.0 0:0.0 0:0.0 0:0.0 0:0.0 0:0.0 0:0.0 0:0.0 2:4.0 0:0.0 0:0.0 1:0.0 1:94.0 70:1.0 0:1.0 0:0.0 0:0.0 
1.0 0:0.0 55:6.0 197:2276.0 0:0.0 0:0.0 0:1.0 0:0.0 0:0.0 0:0.0 0:0.0 0:0.0 2:1.0 1:1.0 0:0.0 1:1.0 0:24.0 9:0.0 0:0.0 0:0.0 0:0.0 
0.42150204362160715 0:0.0 3:0.0 308:607.0 0:0.0 0:0.0 0:1.0 0:0.0 0:0.0 0:0.0 0:0.0 0:0.0 8:8.0 0:0.0 0:0.0 1:0.0 0:255.0 255:1.0 0:0.0 0:0.0 0:0.0 
0.42150204362160715 0:0.0 3:0.0 291:868.0 0:0.0 0:0.0 0:1.0 0:0.0 0:0.0 0:0.0 0:0.0 0:0.0 23:23.0 0:0.0 0:0.0 1:0.0 0:255.0 255:1.0 0:0.0 0:0.0 0:0.0 
0.4213807632022869 0:0.0 15:0.0 2697:331.0 0:0.0 0:0.0 0:1.0 0:0.0 0:0.0 0:0.0 0:0.0 0:0.0 1:1.0 0:0.0 0:0.0 1:0.0 0:255.0 87:0.0 0:0.0 0:0.0 0:0.0 
0.4222745019942522 0:0.0 3:0.0 341:281.0 0:0.0 0:0.0 0:1.0 0:0.0 0:0.0 0:0.0 0:0.0 0:0.0 4:4.0 0:0.0 0:0.0 1:0.0 0:255.0 243:1.0 0:0.0 0:0.0 0:0.0 
0.4222745019942522 0:0.0 10:0.0 8:493.0 0:0.0 0:0.0 0:0.0 0:0.0 0:0.0 0:0.0 0:0.0 0:0.0 1:1.0 0:0.0 0:0.0 1:0.0 0:47.0 12:0.0 0:0.0 0:0.0 0:0.0 
0.4222745019942522 1:0.0 15:0.0 1483:363.0 0:0.0 0:0.0 0:1.0 0:0.0 0:0.0 0:0.0 0:0.0 0:0.0 1:4.0 0:0.0 0:0.0 1:0.0 1:24.0 126:1.0 0:0.0 0:0.0 0:0.0 
1.0 0:1.0 11:0.0 46:128.0 0:0.0 0:0.0 0:0.0 0:0.0 0:0.0 0:0.0 0:0.0 0:0.0 19:79.0 0:0.0 0:0.0 1:0.0 0:255.0 238:1.0 0:0.0 0:0.0 0:0.0 
0.4222745019942522 0:0.0 3:0.0 2426:2737.0 0:0.0 0:0.0 0:1.0 0:0.0 0:0.0 0:0.0 0:0.0 0:0.0 10:10.0 0:0.0 0:0.0 1:0.0 0:12.0 255:1.0 0:0.0 0:0.0 0:0.0 
1.0 0:1.0 11:0.0 36:0.0 0:0.0 0:0.0 0:0.0 0:0.0 0:0.0 0:0.0 0:0.0 0:0.0 1:11.0 0:0.0 0:0.0 1:0.0 1:98.0 78:0.0 0:0.0 0:0.0 0:0.0 
1.0 0:0.0 3:0.0 269:8921.0 0:0.0 0:0.0 0:1.0 0:0.0 0:0.0 0:0.0 0:0.0 0:0.0 2:2.0 0:0.0 0:0.0 1:0.0 0:104.0 255:1.0 0:0.0 0:0.0 0:0.0 
0.4222745019942522 0:0.0 3:0.0 315:347.0 0:0.0 0:0.0 0:1.0 0:0.0 0:0.0 0:0.0 0:0.0 0:0.0 31:31.0 0:0.0 0:0.0 1:0.0 0:255.0 255:1.0 0:0.0 0:0.0 0:0.0 
1.0 0:0.0 3:2.0 0:0.0 0:0.0 0:0.0 0:0.0 0:0.0 0:0.0 0:0.0 0:0.0 0:0.0 1:1.0 0:0.0 1:1.0 1:0.0 0:28.0 255:1.0 0:0.0 0:0.0 0:1.0 
0.42227018100024843 0:0.0 15:0.0 667:332.0 0:0.0 0:0.0 0:1.0 0:0.0 0:0.0 0:0.0 0:0.0 0:0.0 1:4.0 0:0.0 0:0.0 1:0.0 1:122.0 104:0.0 0:0.0 0:0.0 0:0.0 
0.42227018100024843 2:0.0 15:0.0 1160:333.0 0:0.0 0:0.0 0:1.0 0:0.0 0:0.0 0:0.0 0:0.0 0:0.0 1:1.0 0:0.0 0:0.0 1:0.0 0:89.0 97:1.0 0:0.0 0:0.0 0:0.0 
0.4218879047702881 2:0.0 15:0.0 1299:329.0 0:0.0 0:0.0 0:1.0 0:0.0 0:0.0 0:0.0 0:0.0 0:0.0 1:3.0 0:0.0 0:0.0 1:0.0 1:18.0 17:1.0 0:0.0 0:0.0 0:0.0 
0.4222745001986109 0:0.0 15:0.0 711:336.0 0:0.0 0:0.0 0:1.0 0:0.0 0:0.0 0:0.0 0:0.0 0:0.0 1:1.0 0:0.0 0:0.0 1:0.0 0:60.0 130:0.0 0:0.0 0:0.0 0:0.0 
1.0 0:1.0 11:0.0 42:42.0 0:0.0 0:0.0 0:0.0 0:0.0 0:0.0 0:0.0 0:0.0 0:0.0 8:14.0 0:0.0 0:0.0 1:0.0 0:255.0 247:1.0 0:0.0 0:0.0 0:0.0 
1.0 0:1.0 1:0.0 147:0.0 0:0.0 0:0.0 0:0.0 0:0.0 0:0.0 0:0.0 0:0.0 0:0.0 1:1.0 0:0.0 0:0.0 1:0.0 0:255.0 1:0.0 1:1.0 0:0.0 0:0.0 
1.0 0:0.0 3:2.0 0:0.0 0:0.0 0:0.0 0:0.0 0:0.0 0:0.0 0:0.0 0:0.0 0:0.0 1:2.0 0:0.0 1:1.0 1:0.0 1:13.0 255:1.0 0:0.0 0:0.0 0:1.0 
1.0 0:0.0 3:6.0 215:11680.0 0:0.0 0:0.0 0:1.0 0:0.0 0:0.0 0:0.0 0:0.0 0:0.0 1:14.0 1:0.0 0:0.0 1:0.0 0:2.0 255:1.0 0:1.0 0:1.0 0:0.0 
1.0 0:1.0 11:0.0 31:0.0 0:0.0 0:0.0 0:0.0 0:0.0 0:0.0 0:0.0 0:0.0 0:0.0 1:2.0 0:0.0 0:0.0 1:0.0 1:2.0 19:1.0 1:1.0 0:0.0 0:0.0 
0.4219728708093385 0:0.0 3:0.0 338:275.0 0:0.0 0:0.0 0:1.0 0:0.0 0:0.0 0:0.0 0:0.0 0:0.0 13:13.0 0:0.0 0:0.0 1:0.0 0:13.0 255:1.0 0:0.0 0:0.0 0:0.0 
1.0 0:0.0 3:0.0 260:283.0 0:0.0 0:0.0 0:1.0 0:0.0 0:0.0 0:0.0 0:0.0 0:0.0 8:8.0 0:0.0 0:0.0 1:0.0 0:255.0 251:1.0 0:0.0 0:0.0 0:0.0 
0.4218964452423861 0:0.0 15:0.0 2168:402.0 0:0.0 0:0.0 0:1.0 0:0.0 0:0.0 0:0.0 0:0.0 0:0.0 1:1.0 0:0.0 0:0.0 1:0.0 0:255.0 16:0.0 0:0.0 0:1.0 0:0.0 
0.42207840608281877 0:0.0 0:0.0 373:0.0 0:0.0 0:0.0 0:1.0 0:0.0 0:0.0 0:0.0 0:0.0 0:0.0 8:11.0 0:0.0 0:0.0 1:0.0 0:42.0 75:0.0 0:0.0 0:0.0 0:0.0 
0.4223187327246342 0:0.0 3:0.0 347:1417.0 0:0.0 0:0.0 0:1.0 0:0.0 0:0.0 0:0.0 0:0.0 0:0.0 23:23.0 0:0.0 0:0.0 1:0.0 0:255.0 255:1.0 0:0.0 0:0.0 0:0.0 
0.4218590164452383 0:0.0 3:0.0 354:1875.0 0:0.0 0:0.0 0:1.0 0:0.0 0:0.0 0:0.0 0:0.0 0:0.0 3:9.0 0:0.0 0:0.0 1:0.0 0:247.0 255:1.0 0:0.0 0:0.0 0:0.0 
0.4218964452423861 0:0.0 3:0.0 305:2698.0 0:0.0 0:0.0 0:1.0 0:0.0 0:0.0 0:0.0 1:0.0 0:0.0 3:4.0 0:0.0 0:0.0 1:0.0 1:255.0 251:1.0 0:0.0 0:0.0 0:0.0 
1.0 0:1.0 2:0.0 105:147.0 0:0.0 0:0.0 0:0.0 0:0.0 0:0.0 0:0.0 0:0.0 0:0.0 8:2.0 0:0.0 0:0.0 0:0.0 0:255.0 242:1.0 0:0.0 0:0.0 0:0.0 
0.4218919910272112 0:0.0 15:0.0 887:436.0 0:0.0 0:0.0 0:1.0 0:0.0 0:0.0 0:0.0 0:0.0 0:0.0 1:2.0 0:0.0 0:0.0 1:0.0 1:255.0 109:0.0 0:0.0 0:0.0 0:0.0 
0.421876986556555 0:0.0 15:0.0 695:328.0 0:0.0 0:0.0 0:1.0 0:0.0 0:1.0 0:0.0 0:0.0 0:0.0 1:1.0 0:0.0 0:0.0 1:0.0 0:255.0 130:1.0 0:0.0 0:0.0 0:0.0 
0.42213610306016147 0:0.0 0:0.0 495:0.0 0:0.0 0:0.0 0:1.0 0:0.0 0:5.0 0:0.0 0:0.0 0:0.0 1:1.0 0:0.0 0:0.0 1:0.0 0:1.0 30:1.0 0:1.0 0:0.0 0:0.0 
0.42224725930416046 0:0.0 15:0.0 2760:370.0 0:0.0 0:0.0 0:1.0 0:0.0 0:0.0 0:0.0 0:0.0 0:0.0 1:1.0 0:0.0 0:0.0 1:0.0 0:1.0 154:1.0 0:1.0 0:0.0 0:0.0 
1.0 0:1.0 11:0.0 45:83.0 0:0.0 0:0.0 0:0.0 0:0.0 0:0.0 0:0.0 0:0.0 0:0.0 154:154.0 0:0.0 0:0.0 1:0.0 0:255.0 249:1.0 0:0.0 0:0.0 0:0.0 
0.42191419179522055 1:0.0 15:0.0 756:332.0 0:0.0 0:0.0 0:1.0 0:0.0 0:0.0 0:0.0 0:0.0 0:0.0 1:1.0 0:0.0 0:0.0 1:0.0 0:75.0 53:1.0 0:0.0 0:0.0 0:0.0 
0.4221474502944106 0:0.0 0:0.0 7196:0.0 0:0.0 0:0.0 0:1.0 0:0.0 0:0.0 0:0.0 0:0.0 0:0.0 9:9.0 0:0.0 0:0.0 1:0.0 0:111.0 55:0.0 0:0.0 0:0.0 0:0.0 
1.0 0:1.0 11:0.0 46:134.0 0:0.0 0:0.0 0:0.0 0:0.0 0:0.0 0:0.0 0:0.0 0:0.0 307:306.0 0:0.0 0:0.0 1:0.0 0:255.0 225:1.0 0:0.0 0:0.0 0:0.0 
1.0 0:1.0 11:0.0 45:130.0 0:0.0 0:0.0 0:0.0 0:0.0 0:0.0 0:0.0 0:0.0 0:0.0 43:121.0 0:0.0 0:0.0 1:0.0 0:233.0 171:1.0 0:0.0 0:0.0 0:0.0 
1.0 0:1.0 11:0.0 43:71.0 0:0.0 0:0.0 0:0.0 0:0.0 0:0.0 0:0.0 0:0.0 0:0.0 202:202.0 0:0.0 0:0.0 1:0.0 0:255.0 255:1.0 0:0.0 0:0.0 0:0.0 
0.422071002080637 9908:0.0 55:3.0 2634:8611.0 0:0.0 0:0.0 0:1.0 0:0.0 0:0.0 0:0.0 0:0.0 0:0.0 1:1.0 0:0.0 1:1.0 1:0.0 0:11.0 4:0.0 0:0.0 0:0.0 0:0.0 
0.4223187327246341 357:0.0 9:0.0 334:10686.0 0:0.0 0:0.0 0:0.0 0:0.0 0:0.0 0:0.0 0:0.0 0:0.0 1:1.0 0:0.0 0:0.0 1:0.0 0:255.0 65:0.0 0:0.0 0:1.0 1:0.0 
0.42189546640775355 0:0.0 0:0.0 4539:0.0 0:0.0 0:0.0 0:1.0 0:0.0 0:0.0 0:0.0 0:0.0 0:0.0 20:20.0 0:0.0 0:0.0 1:0.0 0:141.0 49:0.0 0:0.0 0:0.0 0:0.0 
0.4214789312463031 0:0.0 3:0.0 320:520.0 0:0.0 0:0.0 0:1.0 0:0.0 0:0.0 0:0.0 0:0.0 0:0.0 23:43.0 0:0.0 0:0.0 1:0.0 0:255.0 255:1.0 0:0.0 0:0.0 0:0.0 
0.9214789312463031 0:0.0 3:0.0 281:759.0 0:0.0 0:0.0 0:1.0 0:0.0 0:0.0 0:0.0 0:0.0 0:0.0 3:5.0 0:0.0 0:0.0 1:0.0 0:113.0 255:1.0 0:0.0 0:0.0 0:0.0 
0.4219941406771095 0:0.0 3:0.0 345:3938.0 0:0.0 0:0.0 0:1.0 0:0.0 0:0.0 0:0.0 0:0.0 0:0.0 10:16.0 0:0.0 0:0.0 1:0.0 0:255.0 255:1.0 0:0.0 0:0.0 0:0.0 
0.42159963703479164 799:0.0 9:3.0 676:23920.0 0:0.0 0:0.0 0:1.0 2:0.0 0:0.0 0:0.0 1:0.0 0:0.0 3:2.0 0:0.0 1:1.0 1:1.0 0:255.0 16:0.0 0:0.0 0:1.0 0:0.0 
-1.0 0:0.0 0:0.0 334:0.0 0:0.0 0:0.0 0:1.0 0:0.0 0:0.0 0:0.0 0:0.0 0:0.0 2:2.0 0:0.0 0:0.0 1:0.0 0:2.0 20:1.0 0:1.0 0:0.0 0:0.0 
-0.8161313217133284 0:0.0 5:1.0 0:0.0 0:0.0 0:0.0 0:0.0 0:0.0 0:0.0 0:0.0 0:0.0 0:0.0 233:1.0 1:1.0 0:0.0 0:0.0 0:255.0 1:0.0 0:0.0 0:1.0 1:0.0 
-1.0 0:0.0 6:1.0 0:0.0 0:0.0 0:0.0 0:0.0 0:0.0 0:0.0 0:0.0 0:0.0 0:0.0 96:16.0 1:1.0 0:0.0 0:0.0 0:255.0 2:0.0 0:0.0 0:1.0 1:0.0 
-1.0 0:2.0 7:0.0 18:0.0 0:0.0 0:0.0 0:0.0 0:0.0 0:0.0 0:0.0 0:0.0 0:0.0 1:1.0 0:0.0 0:0.0 1:0.0 0:1.0 16:1.0 0:1.0 1:0.0 0:0.0 
-1.0 0:2.0 7:0.0 8:0.0 0:0.0 0:0.0 0:0.0 0:0.0 0:0.0 0:0.0 0:0.0 0:0.0 1:12.0 0:0.0 0:0.0 1:0.0 1:1.0 53:1.0 0:1.0 1:0.0 0:0.0 
-1.0 0:0.0 12:1.0 0:0.0 0:0.0 0:0.0 0:0.0 0:0.0 0:0.0 0:0.0 0:0.0 0:0.0 205:17.0 1:1.0 0:0.0 0:0.0 0:255.0 17:0.0 0:0.0 0:1.0 1:0.0 
-0.4644021838903427 0:0.0 13:1.0 0:0.0 0:0.0 0:0.0 0:0.0 0:0.0 0:0.0 0:0.0 0:0.0 0:0.0 228:13.0 1:1.0 0:0.0 0:0.0 0:255.0 13:0.0 0:0.0 0:1.0 1:0.0 
-1.0 0:1.0 2:0.0 28:0.0 0:3.0 0:0.0 0:0.0 0:0.0 0:0.0 0:0.0 0:0.0 0:0.0 80:80.0 0:0.0 0:0.0 1:0.0 0:255.0 80:0.0 0:0.0 0:0.0 0:0.0 
-0.05445283373090248 0:0.0 0:1.0 0:0.0 0:0.0 0:0.0 0:0.0 0:0.0 0:0.0 0:0.0 0:0.0 0:0.0 258:17.0 1:1.0 0:0.0 0:0.0 0:255.0 5:0.0 0:0.0 0:1.0 1:0.0 
-1.0 0:2.0 7:0.0 8:0.0 0:0.0 0:0.0 0:0.0 0:0.0 0:0.0 0:0.0 0:0.0 0:0.0 1:15.0 0:0.0 0:0.0 1:0.0 1:2.0 46:1.0 0:1.0 0:0.0 0:0.0 
-1.0 0:0.0 3:1.0 0:0.0 0:0.0 0:0.0 0:0.0 0:0.0 0:0.0 0:0.0 0:0.0 0:0.0 52:19.0 1:1.0 0:0.0 0:0.0 0:255.0 67:0.0 0:0.0 0:1.0 1:0.0 
-1.0 0:0.0 20:1.0 0:0.0 0:0.0 0:0.0 0:0.0 0:0.0 0:0.0 0:0.0 0:0.0 0:0.0 276:9.0 1:1.0 0:0.0 0:0.0 0:255.0 9:0.0 0:0.0 0:1.0 1:0.0 
-0.05481775143729678 0:0.0 21:1.0 0:0.0 0:0.0 0:0.0 0:0.0 0:0.0 0:0.0 0:0.0 0:0.0 0:0.0 220:19.0 1:1.0 0:0.0 0:0.0 0:255.0 2:0.0 0:0.0 0:1.0 1:0.0 
-1.0 0:2.0 7:0.0 8:0.0 0:0.0 0:0.0 0:0.0 0:0.0 0:0.0 0:0.0 0:0.0 0:0.0 1:44.0 0:0.0 0:0.0 1:0.0 1:1.0 95:1.0 0:1.0 1:0.0 0:0.0 
-1.0 0:0.0 22:1.0 0:0.0 0:0.0 0:0.0 0:0.0 0:0.0 0:0.0 0:0.0 0:0.0 0:0.0 250:13.0 1:1.0 0:0.0 0:0.0 0:255.0 1:0.0 0:0.0 0:1.0 1:0.0 
-1.0 0:0.0 16:1.0 0:0.0 0:0.0 0:0.0 0:0.0 0:0.0 0:0.0 0:0.0 0:0.0 0:0.0 300:6.0 1:1.0 0:0.0 0:0.0 0:255.0 3:0.0 0:0.0 0:1.0 1:0.0 
-1.0 0:1.0 2:0.0 28:0.0 0:3.0 0:0.0 0:0.0 0:0.0 0:0.0 0:0.0 0:0.0 0:0.0 82:82.0 0:0.0 0:0.0 1:0.0 0:255.0 182:1.0 0:1.0 0:0.0 0:0.0 
-1.0 25950:0.0 2:3.0 1:0.0 0:0.0 0:0.0 0:0.0 0:0.0 0:0.0 0:0.0 0:0.0 0:0.0 2:2.0 0:0.0 1:1.0 1:0.0 0:255.0 2:0.0 1:1.0 0:0.0 0:1.0 
-1.0 0:0.0 23:1.0 0:0.0 0:0.0 0:0.0 0:0.0 0:0.0 0:0.0 0:0.0 0:0.0 0:0.0 294:6.0 1:1.0 0:0.0 0:0.0 0:255.0 8:0.0 0:0.0 0:1.0 1:0.0 
-1.0 0:0.0 12:1.0 0:0.0 0:0.0 0:0.0 0:0.0 0:0.0 0:0.0 0:0.0 0:0.0 0:0.0 245:20.0 1:1.0 0:0.0 0:0.0 0:255.0 7:0.0 0:0.0 0:1.0 1:0.0 
-1.0 0:2.0 25:0.0 1032:0.0 0:0.0 0:0.0 0:0.0 0:0.0 0:0.0 0:0.0 0:0.0 0:0.0 263:263.0 0:0.0 0:0.0 1:0.0 0:255.0 255:1.0 0:1.0 0:0.0 0:0.0 
-0.02179277573730485 0:0.0 27:1.0 0:0.0 0:0.0 0:0.0 0:0.0 0:0.0 0:0.0 0:0.0 0:0.0 0:0.0 292:13.0 1:1.0 0:0.0 0:0.0 0:255.0 14:0.0 0:0.0 0:1.0 1:0.0 
-1.0 0:0.0 29:1.0 0:0.0 0:0.0 0:0.0 0:0.0 0:0.0 0:0.0 0:0.0 0:0.0 0:0.0 143:15.0 1:1.0 0:0.0 0:0.0 0:255.0 15:0.0 0:0.0 0:1.0 1:0.0 
-1.0 0:2.0 7:0.0 8:0.0 0:0.0 0:0.0 0:0.0 0:0.0 0:0.0 0:0.0 0:0.0 0:0.0 1:46.0 0:0.0 0:0.0 1:0.0 1:1.0 15:1.0 0:1.0 1:0.0 0:0.0 
-0.031099924376172206 0:0.0 31:1.0 0:0.0 0:0.0 0:0.0 0:0.0 0:0.0 0:0.0 0:0.0 0:0.0 0:0.0 251:3.0 1:1.0 0:0.0 0:0.0 0:255.0 3:0.0 0:0.0 0:1.0 1:0.0 
-1.0 0:0.0 4:1.0 0:0.0 0:0.0 0:0.0 0:0.0 0:0.0 0:0.0 0:0.0 0:0.0 0:0.0 260:4.0 1:1.0 0:0.0 0:0.0 0:255.0 4:0.0 0:0.0 0:1.0 1:0.0 
-1.0 9015:0.0 1:3.0 1:0.0 0:0.0 0:0.0 0:0.0 0:0.0 0:0.0 0:0.0 0:0.0 0:0.0 2:2.0 0:0.0 1:1.0 1:0.0 0:255.0 2:0.0 1:1.0 0:0.0 0:1.0 
-1.0 0:0.0 26:1.0 0:0.0 0:0.0 0:0.0 0:0.0 0:0.0 0:0.0 0:0.0 0:0.0 0:0.0 44:12.0 1:1.0 0:0.0 0:0.0 0:255.0 12:0.0 0:0.0 0:1.0 1:0.0 
-1.0 0:2.0 25:0.0 1032:0.0 0:0.0 0:0.0 0:0.0 0:0.0 0:0.0 0:0.0 0:0.0 0:0.0 511:511.0 0:0.0 0:0.0 1:0.0 0:255.0 212:1.0 0:1.0 0:0.0 0:0.0 
-0.03126678273569583 0:0.0 31:1.0 0:0.0 0:0.0 0:0.0 0:0.0 0:0.0 0:0.0 0:0.0 0:0.0 0:0.0 287:3.0 1:1.0 0:0.0 0:0.0 0:255.0 3:0.0 0:0.0 0:1.0 1:0.0 
-0.27594204877520434 0:0.0 1:2.0 0:0.0 0:0.0 0:0.0 0:0.0 0:0.0 0:0.0 0:0.0 0:0.0 0:0.0 486:1.0 0:0.0 1:1.0 0:1.0 0:255.0 1:0.0 1:0.0 0:0.0 0:1.0 
-1.0 0:0.0 33:1.0 0:0.0 0:0.0 0:0.0 0:0.0 0:0.0 0:0.0 0:0.0 0:0.0 0:0.0 286:9.0 1:1.0 0:0.0 0:0.0 0:255.0 11:0.0 0:0.0 0:1.0 1:0.0 
-1.0 15159:0.0 22:0.0 350:1185.0 0:0.0 0:6.0 0:1.0 0:0.0 0:0.0 0:0.0 0:0.0 0:1.0 1:2.0 0:0.0 0:0.0 1:0.0 1:255.0 142:1.0 0:0.0 0:0.0 0:0.0 
-0.3226473805085803 0:0.0 35:1.0 0:0.0 0:0.0 0:0.0 0:0.0 0:0.0 0:0.0 0:0.0 0:0.0 0:0.0 143:14.0 1:1.0 0:0.0 0:0.0 0:255.0 14:0.0 0:0.0 0:1.0 1:0.0 
-0.462851886701135 0:0.0 13:1.0 0:0.0 0:0.0 0:0.0 0:0.0 0:0.0 0:0.0 0:0.0 0:0.0 0:0.0 201:18.0 1:1.0 0:0.0 0:0.0 0:255.0 18:0.0 0:0.0 0:1.0 1:0.0 
-0.05489745561994064 0:0.0 6:1.0 0:0.0 0:0.0 0:0.0 0:0.0 0:0.0 0:0.0 0:0.0 0:0.0 0:0.0 124:19.0 1:1.0 0:0.0 0:0.0 0:255.0 19:0.0 0:0.0 0:1.0 1:0.0 
-1.0 0:2.0 25:0.0 1480:0.0 0:1.0 0:0.0 0:0.0 0:0.0 0:0.0 0:0.0 0:0.0 0:0.0 2:4.0 0:0.0 0:0.0 1:0.0 1:2.0 38:1.0 0:1.0 1:0.0 0:0.0 
-1.0 0:0.0 33:1.0 0:0.0 0:0.0 0:0.0 0:0.0 0:0.0 0:0.0 0:0.0 0:0.0 0:0.0 277:17.0 1:1.0 0:0.0 0:0.0 0:255.0 17:0.0 0:0.0 0:1.0 1:0.0 
-0.6237325258676523 0:0.0 36:1.0 0:0.0 0:0.0 0:0.0 0:0.0 0:0.0 0:0.0 0:0.0 0:0.0 0:0.0 274:22.0 1:1.0 0:0.0 0:0.0 0:255.0 22:0.0 0:0.0 0:1.0 1:0.0 
-0.8959917132846488 0:0.0 37:1.0 0:0.0 0:0.0 0:0.0 0:0.0 0:0.0 0:0.0 0:0.0 0:0.0 0:0.0 141:12.0 1:1.0 0:0.0 0:0.0 0:255.0 16:0.0 0:0.0 0:1.0 1:0.0 
-1.0 4:0.0 0:0.0 832:0.0 0:0.0 0:0.0 0:1.0 0:0.0 0:0.0 0:0.0 0:0.0 0:0.0 1:1.0 0:0.0 0:0.0 1:0.0 0:3.0 28:1.0 0:1.0 0:0.0 0:0.0 
-1.0 0:2.0 7:0.0 8:0.0 0:0.0 0:0.0 0:0.0 0:0.0 0:0.0 0:0.0 0:0.0 0:0.0 1:50.0 0:0.0 0:0.0 1:0.0 1:1.0 25:1.0 0:1.0 1:0.0 0:0.0 
-1.0 0:0.0 22:5.0 0:0.0 0:0.0 0:0.0 0:0.0 0:0.0 0:0.0 0:0.0 0:0.0 0:0.0 250:3.0 0:0.0 1:1.0 0:0.0 0:255.0 3:0.0 0:0.0 0:0.0 0:1.0 
-0.8522846983598261 0:0.0 20:1.0 0:0.0 0:0.0 0:0.0 0:0.0 0:0.0 0:0.0 0:0.0 0:0.0 0:0.0 238:7.0 1:1.0 0:0.0 0:0.0 0:255.0 7:0.0 0:0.0 0:1.0 1:0.0 
-0.8959917132846488 0:0.0 39:1.0 0:0.0 0:0.0 0:0.0 0:0.0 0:0.0 0:0.0 0:0.0 0:0.0 0:0.0 102:2.0 1:1.0 0:0.0 0:0.0 0:255.0 2:0.0 0:0.0 0:1.0 1:0.0 
-1.0 0:2.0 7:0.0 18:0.0 0:0.0 0:0.0 0:0.0 0:0.0 0:0.0 0:0.0 0:0.0 0:0.0 1:1.0 0:0.0 0:0.0 1:0.0 0:1.0 123:1.0 0:1.0 1:0.0 0:0.0 
-1.0 0:0.0 27:1.0 0:0.0 0:0.0 0:0.0 0:0.0 0:0.0 0:0.0 0:0.0 0:0.0 0:0.0 281:2.0 1:1.0 0:0.0 0:0.0 0:255.0 3:0.0 0:0.0 0:1.0 1:0.0 
-1.0 0:2.0 7:0.0 8:0.0 0:0.0 0:0.0 0:0.0 0:0.0 0:0.0 0:0.0 0:0.0 0:0.0 1:21.0 0:0.0 0:0.0 1:0.0 1:2.0 60:1.0 0:1.0 1:0.0 0:0.0 
-1.0 0:2.0 7:0.0 8:0.0 0:0.0 0:0.0 0:0.0 0:0.0 0:0.0 0:0.0 0:0.0 0:0.0 1:23.0 0:0.0 0:0.0 1:0.0 1:1.0 63:1.0 0:1.0 1:0.0 0:0.0 
-1.0 9235:0.0 1:3.0 1:0.0 0:0.0 0:0.0 0:0.0 0:0.0 0:0.0 0:0.0 0:0.0 0:0.0 2:2.0 0:0.0 1:1.0 1:0.0 0:255.0 2:0.0 1:1.0 0:0.0 0:1.0 
-1.0 0:2.0 25:0.0 1032:0.0 0:0.0 0:0.0 0:0.0 0:0.0 0:0.0 0:0.0 0:0.0 0:0.0 46:46.0 0:0.0 0:0.0 1:0.0 0:255.0 46:0.0 0:0.0 0:0.0 0:0.0 
-0.021798716282362074 0:0.0 27:1.0 0:0.0 0:0.0 0:0.0 0:0.0 0:0.0 0:0.0 0:0.0 0:0.0 0:0.0 211:22.0 1:1.0 0:0.0 0:0.0 0:255.0 22:0.0 0:0.0 0:1.0 1:0.0 
-0.6498647543882268 0:0.0 8:2.0 0:0.0 0:0.0 0:0.0 0:0.0 0:0.0 0:0.0 0:0.0 0:0.0 0:0.0 280:11.0 0:0.0 1:1.0 0:0.0 0:255.0 11:0.0 0:0.0 0:0.0 0:1.0 
-1.0 0:2.0 7:0.0 8:0.0 0:0.0 0:0.0 0:0.0 0:0.0 0:0.0 0:0.0 0:0.0 0:0.0 1:44.0 0:0.0 0:0.0 1:0.0 1:1.0 111:1.0 0:1.0 1:0.0 0:0.0 
-1.0 0:0.0 20:2.0 0:0.0 0:0.0 0:0.0 0:0.0 0:0.0 0:0.0 0:0.0 0:0.0 0:0.0 276:14.0 0:0.0 1:1.0 0:0.0 0:255.0 14:0.0 0:0.0 0:0.0 0:1.0 
-1.0 0:0.0 3:1.0 0:0.0 0:0.0 0:0.0 0:0.0 0:0.0 0:0.0 0:0.0 0:0.0 0:0.0 14:6.0 1:1.0 0:0.0 0:0.0 0:94.0 26:0.0 0:0.0 0:1.0 1:0.0 
-1.0 0:0.0 22:1.0 0:0.0 0:0.0 0:0.0 0:0.0 0:0.0 0:0.0 0:0.0 0:0.0 0:0.0 300:7.0 1:1.0 0:0.0 0:0.0 0:255.0 7:0.0 0:0.0 0:1.0 1:0.0 
-1.0 36613:0.0 2:3.0 1:0.0 0:0.0 0:0.0 0:0.0 0:0.0 0:0.0 0:0.0 0:0.0 0:0.0 2:2.0 0:0.0 1:1.0 1:0.0 0:255.0 2:0.0 1:1.0 0:0.0 0:1.0 
-1.0 0:0.0 40:1.0 0:0.0 0:0.0 0:0.0 0:0.0 0:0.0 0:0.0 0:0.0 0:0.0 0:0.0 104:4.0 1:1.0 0:0.0 0:0.0 0:255.0 18:0.0 0:0.0 0:1.0 1:0.0 
-1.0 0:2.0 7:0.0 8:0.0 0:0.0 0:0.0 0:0.0 0:0.0 0:0.0 0:0.0 0:0.0 0:0.0 1:25.0 0:0.0 0:0.0 1:0.0 1:4.0 112:1.0 0:1.0 0:0.0 0:0.0 
-1.0 0:0.0 42:2.0 0:0.0 0:0.0 0:0.0 0:0.0 0:0.0 0:0.0 0:0.0 0:0.0 0:0.0 225:2.0 0:0.0 1:1.0 0:0.0 0:255.0 2:0.0 0:0.0 0:0.0 0:1.0 
-1.0 0:0.0 9:1.0 0:0.0 0:0.0 0:0.0 0:0.0 0:0.0 0:0.0 0:0.0 0:0.0 0:0.0 66:16.0 1:1.0 0:0.0 0:0.0 0:255.0 52:0.0 0:0.0 0:1.0 1:0.0 
-1.0 5043:0.0 0:0.0 5131424:0.0 0:0.0 0:4.0 0:1.0 0:0.0 0:0.0 0:0.0 0:0.0 0:0.0 1:7.0 0:0.0 0:0.0 1:0.0 0:7.0 42:1.0 0:1.0 0:0.0 0:0.0 
-1.0 0:2.0 7:0.0 8:0.0 0:0.0 0:0.0 0:0.0 0:0.0 0:0.0 0:0.0 0:0.0 0:0.0 1:35.0 0:0.0 0:0.0 1:0.0 1:1.0 61:1.0 0:1.0 1:0.0 0:0.0 
-0.3544074069700954 0:0.0 41:3.0 0:0.0 0:0.0 0:0.0 0:0.0 0:0.0 0:0.0 0:0.0 0:0.0 0:0.0 1:1.0 0:0.0 1:1.0 1:0.0 0:255.0 1:0.0 0:0.0 0:0.0 0:0.0 
-1.0 0:0.0 43:5.0 0:0.0 0:0.0 0:0.0 0:0.0 0:0.0 0:0.0 0:0.0 0:0.0 0:0.0 144:16.0 0:0.0 1:1.0 0:0.0 0:255.0 9:0.0 0:0.0 0:0.0 0:1.0 
-0.8963138711284101 0:0.0 18:1.0 0:0.0 0:0.0 0:0.0 0:0.0 0:0.0 0:0.0 0:0.0 0:0.0 0:0.0 241:19.0 1:1.0 0:0.0 0:0.0 0:255.0 19:0.0 0:0.0 0:1.0 1:0.0 
-1.0 0:2.0 25:0.0 1032:0.0 0:0.0 0:0.0 0:0.0 0:0.0 0:0.0 0:0.0 0:0.0 0:0.0 213:213.0 0:0.0 0:0.0 1:0.0 0:255.0 255:1.0 0:1.0 0:0.0 0:0.0 
-1.0 0:2.0 7:0.0 8:0.0 0:0.0 0:0.0 0:0.0 0:0.0 0:0.0 0:0.0 0:0.0 0:0.0 1:45.0 0:0.0 0:0.0 1:0.0 1:1.0 11:1.0 0:1.0 1:0.0 0:0.0 
-1.0 0:0.0 2:1.0 0:0.0 0:0.0 0:0.0 0:0.0 0:0.0 0:0.0 0:0.0 0:0.0 0:0.0 254:17.0 1:1.0 0:0.0 0:0.0 0:255.0 17:0.0 0:0.0 0:1.0 1:0.0 
-1.0 0:0.0 9:1.0 0:0.0 0:0.0 0:0.0 0:0.0 0:0.0 0:0.0 0:0.0 0:0.0 0:0.0 295:7.0 1:1.0 0:0.0 0:0.0 0:255.0 7:0.0 0:0.0 0:1.0 1:0.0 
-1.0 0:0.0 2:1.0 0:0.0 0:0.0 0:0.0 0:0.0 0:0.0 0:0.0 0:0.0 0:0.0 0:0.0 171:3.0 1:1.0 0:0.0 0:0.0 0:255.0 14:0.0 0:0.0 0:1.0 1:0.0 
-1.0 0:0.0 29:1.0 0:0.0 0:0.0 0:0.0 0:0.0 0:0.0 0:0.0 0:0.0 0:0.0 0:0.0 101:7.0 1:1.0 0:0.0 0:0.0 0:255.0 3:0.0 0:0.0 0:1.0 1:0.0 
-1.0 0:0.0 45:1.0 0:0.0 0:0.0 0:0.0 0:0.0 0:0.0 0:0.0 0:0.0 0:0.0 0:0.0 268:19.0 1:1.0 0:0.0 0:0.0 0:255.0 19:0.0 0:0.0 0:1.0 1:0.0 
-0.25916680338426445 0:0.0 1:2.0 0:0.0 0:0.0 0:0.0 0:0.0 0:0.0 0:0.0 0:0.0 0:0.0 0:0.0 425:1.0 0:0.0 1:1.0 0:1.0 0:255.0 1:0.0 1:0.0 0:0.0 0:1.0 
-1.0 0:0.0 3:1.0 0:0.0 0:0.0 0:0.0 0:0.0 0:0.0 0:0.0 0:0.0 0:0.0 0:0.0 272:30.0 1:0.0 0:0.0 0:0.0 0:255.0 13:0.0 0:0.0 0:1.0 1:0.0 
-0.8169037800859734 0:0.0 40:1.0 0:0.0 0:0.0 0:0.0 0:0.0 0:0.0 0:0.0 0:0.0 0:0.0 0:0.0 125:19.0 1:1.0 0:0.0 0:0.0 0:255.0 18:0.0 0:0.0 0:1.0 1:0.0 
-1.0 0:2.0 7:0.0 8:0.0 0:0.0 0:0.0 0:0.0 0:0.0 0:0.0 0:0.0 0:0.0 0:0.0 1:18.0 0:0.0 0:0.0 1:0.0 1:2.0 255:1.0 0:1.0 1:0.0 0:0.0 
-1.0 0:0.0 0:1.0 0:0.0 0:0.0 0:0.0 0:0.0 0:0.0 0:0.0 0:0.0 0:0.0 0:0.0 42:10.0 1:1.0 0:0.0 0:0.0 0:124.0 62:0.0 0:0.0 0:1.0 0:0.0 
-1.0 0:0.0 46:1.0 0:0.0 0:0.0 0:0.0 0:0.0 0:0.0 0:0.0 0:0.0 0:0.0 0:0.0 196:12.0 1:1.0 0:0.0 0:0.0 0:255.0 12:0.0 0:0.0 0:1.0 1:0.0 
-1.0 31401:0.0 2:3.0 1:0.0 0:0.0 0:0.0 0:0.0 0:0.0 0:0.0 0:0.0 0:0.0 0:0.0 2:2.0 0:0.0 1:1.0 1:0.0 0:255.0 2:0.0 1:1.0 0:0.0 0:1.0 
-1.0 0:2.0 7:0.0 18:0.0 0:0.0 0:0.0 0:0.0 0:0.0 0:0.0 0:0.0 0:0.0 0:0.0 1:1.0 0:0.0 0:0.0 1:0.0 0:4.0 200:1.0 0:1.0 0:0.0 0:0.0 
-1.0 0:0.0 10:1.0 0:0.0 0:0.0 0:0.0 0:0.0 0:0.0 0:0.0 0:0.0 0:0.0 0:0.0 257:19.0 1:1.0 0:0.0 0:0.0 0:255.0 19:0.0 0:0.0 0:1.0 1:0.0 
-1.0 0:2.0 7:0.0 8:0.0 0:0.0 0:0.0 0:0.0 0:0.0 0:0.0 0:0.0 0:0.0 0:0.0 1:27.0 0:0.0 0:0.0 1:0.0 1:1.0 41:1.0 0:1.0 1:0.0 0:0.0 
-1.0 0:0.0 43:5.0 0:0.0 0:0.0 0:0.0 0:0.0 0:0.0 0:0.0 0:0.0 0:0.0 0:0.0 137:9.0 0:0.0 1:1.0 0:0.0 0:255.0 4:0.0 0:0.0 0:0.0 0:1.0 
-0.9277743124065325 0:0.0 38:1.0 0:0.0 0:0.0 0:0.0 0:0.0 0:0.0 0:0.0 0:0.0 0:0.0 0:0.0 132:3.0 1:1.0 0:0.0 0:0.0 0:255.0 14:0.0 0:0.0 0:1.0 1:0.0 
-0.613819351980873 0:0.0 14:1.0 0:0.0 0:0.0 0:0.0 0:0.0 0:0.0 0:0.0 0:0.0 0:0.0 0:0.0 290:16.0 1:1.0 0:0.0 0:0.0 0:255.0 11:0.0 0:0.0 0:1.0 1:0.0 
-1.0 0:2.0 25:0.0 1032:0.0 0:0.0 0:0.0 0:0.0 0:0.0 0:0.0 0:0.0 0:0.0 0:0.0 486:486.0 0:0.0 0:0.0 1:0.0 0:255.0 255:1.0 0:1.0 0:0.0 0:0.0 
-1.0 0:2.0 25:0.0 520:0.0 0:0.0 0:0.0 0:0.0 0:0.0 0:0.0 0:0.0 0:0.0 0:0.0 457:457.0 0:0.0 0:0.0 1:0.0 0:153.0 153:1.0 0:1.0 0:0.0 0:0.0 
-0.05481775143729678 0:0.0 48:1.0 0:0.0 0:0.0 0:0.0 0:0.0 0:0.0 0:0.0 0:0.0 0:0.0 0:0.0 140:1.0 1:1.0 0:0.0 0:0.0 0:255.0 1:0.0 0:0.0 0:1.0 1:0.0 
-1.0 0:2.0 25:0.0 1032:0.0 0:0.0 0:0.0 0:0.0 0:0.0 0:0.0 0:0.0 0:0.0 0:0.0 511:511.0 0:0.0 0:0.0 1:0.0 0:255.0 200:1.0 0:1.0 0:0.0 0:0.0 
-1.0 0:0.0 16:1.0 0:0.0 0:0.0 0:0.0 0:0.0 0:0.0 0:0.0 0:0.0 0:0.0 0:0.0 202:2.0 1:1.0 0:0.0 0:0.0 0:255.0 8:0.0 0:0.0 0:1.0 1:0.0 
-0.05479038644372303 0:0.0 9:1.0 0:0.0 0:0.0 0:0.0 0:0.0 0:0.0 0:0.0 0:0.0 0:0.0 0:0.0 74:17.0 1:1.0 0:0.0 0:0.0 0:255.0 58:0.0 0:0.0 0:1.0 1:0.0 
-0.021792775737304558 0:0.0 27:1.0 0:0.0 0:0.0 0:0.0 0:0.0 0:0.0 0:0.0 0:0.0 0:0.0 0:0.0 197:2.0 1:1.0 0:0.0 0:0.0 0:255.0 2:0.0 0:0.0 0:1.0 1:0.0 
-0.626212215505245 0:0.0 36:1.0 0:0.0 0:0.0 0:0.0 0:0.0 0:0.0 0:0.0 0:0.0 0:0.0 0:0.0 223:21.0 1:1.0 0:0.0 0:0.0 0:255.0 21:0.0 0:0.0 0:1.0 1:0.0 
-0.9277743124065331 0:0.0 38:1.0 0:0.0 0:0.0 0:0.0 0:0.0 0:0.0 0:0.0 0:0.0 0:0.0 0:0.0 138:6.0 1:1.0 0:0.0 0:0.0 0:255.0 6:0.0 0:0.0 0:1.0 1:0.0 
-1.0 0:2.0 7:0.0 8:0.0 0:0.0 0:0.0 0:0.0 0:0.0 0:0.0 0:0.0 0:0.0 0:0.0 1:28.0 0:0.0 0:0.0 1:0.0 1:1.0 35:1.0 0:1.0 1:0.0 0:0.0 
-0.6263931398218595 0:0.0 49:1.0 0:0.0 0:0.0 0:0.0 0:0.0 0:0.0 0:0.0 0:0.0 0:0.0 0:0.0 204:18.0 1:1.0 0:0.0 0:0.0 0:255.0 18:0.0 0:0.0 0:1.0 1:0.0 
-1.0 0:0.0 41:1.0 0:0.0 0:0.0 0:0.0 0:0.0 0:0.0 0:0.0 0:0.0 0:0.0 0:0.0 262:4.0 1:1.0 0:0.0 0:0.0 0:255.0 4:0.0 0:0.0 0:1.0 1:0.0 
-1.0 0:0.0 21:1.0 0:0.0 0:0.0 0:0.0 0:0.0 0:0.0 0:0.0 0:0.0 0:0.0 0:0.0 253:1.0 1:1.0 0:0.0 0:0.0 0:255.0 1:0.0 0:0.0 0:1.0 1:0.0 
-0.9266446586102512 0:0.0 38:1.0 0:0.0 0:0.0 0:0.0 0:0.0 0:0.0 0:0.0 0:0.0 0:0.0 0:0.0 139:20.0 1:1.0 0:0.0 0:0.0 0:255.0 20:0.0 0:0.0 0:1.0 1:0.0 
-1.0 1:0.0 22:0.0 1238:2451.0 0:0.0 0:28.0 0:1.0 0:0.0 0:0.0 0:0.0 0:0.0 0:1.0 1:1.0 0:0.0 0:0.0 1:0.0 0:255.0 123:0.0 0:0.0 0:0.0 0:0.0 
-1.0 0:2.0 7:0.0 8:0.0 0:0.0 0:0.0 0:0.0 0:0.0 0:0.0 0:0.0 0:0.0 0:0.0 1:7.0 0:0.0 0:0.0 1:0.0 1:1.0 59:1.0 0:1.0 1:0.0 0:0.0 
-1.0 0:0.0 43:1.0 0:0.0 0:0.0 0:0.0 0:0.0 0:0.0 0:0.0 0:0.0 0:0.0 0:0.0 103:17.0 1:1.0 0:0.0 0:0.0 0:255.0 17:0.0 0:0.0 0:1.0 1:0.0 
-1.0 0:0.0 8:1.0 0:0.0 0:0.0 0:0.0 0:0.0 0:0.0 0:0.0 0:0.0 0:0.0 0:0.0 221:16.0 1:1.0 0:0.0 0:0.0 0:255.0 17:0.0 0:0.0 0:1.0 1:0.0 
-1.0 0:0.0 13:1.0 0:0.0 0:0.0 0:0.0 0:0.0 0:0.0 0:0.0 0:0.0 0:0.0 0:0.0 221:14.0 1:1.0 0:0.0 0:0.0 0:255.0 14:0.0 0:0.0 0:1.0 1:0.0 
-1.0 0:0.0 14:2.0 0:0.0 0:0.0 0:0.0 0:0.0 0:0.0 0:0.0 0:0.0 0:0.0 0:0.0 284:14.0 0:0.0 1:1.0 0:0.0 0:255.0 14:0.0 0:0.0 0:0.0 0:1.0 
-1.0 0:0.0 32:1.0 0:0.0 0:0.0 0:0.0 0:0.0 0:0.0 0:0.0 0:0.0 0:0.0 0:0.0 255:9.0 1:1.0 0:0.0 0:0.0 0:255.0 9:0.0 0:0.0 0:1.0 1:0.0 
-1.0 0:0.0 10:1.0 0:0.0 0:0.0 0:0.0 0:0.0 0:0.0 0:0.0 0:0.0 0:0.0 0:0.0 74:20.0 1:1.0 0:0.0 0:0.0 0:255.0 58:0.0 0:0.0 0:1.0 1:0.0 
-1.0 0:0.0 15:1.0 0:0.0 0:0.0 0:0.0 0:0.0 0:0.0 0:0.0 0:0.0 0:0.0 0:0.0 7:9.0 1:1.0 0:0.0 1:0.0 0:29.0 141:0.0 0:0.0 0:1.0 0:0.0 
-1.0 0:0.0 0:0.0 334:0.0 0:0.0 0:0.0 0:1.0 0:0.0 0:0.0 0:0.0 0:0.0 0:0.0 1:1.0 0:0.0 0:0.0 1:0.0 0:1.0 17:1.0 0:1.0 0:0.0 0:0.0 
-1.0 0:2.0 7:0.0 8:0.0 0:0.0 0:0.0 0:0.0 0:0.0 0:0.0 0:0.0 0:0.0 0:0.0 1:15.0 0:0.0 0:0.0 1:0.0 1:1.0 28:1.0 0:1.0 1:0.0 0:0.0 
-0.02180840205462932 0:0.0 23:1.0 0:0.0 0:0.0 0:0.0 0:0.0 0:0.0 0:0.0 0:0.0 0:0.0 0:0.0 115:7.0 1:1.0 0:0.0 0:0.0 0:255.0 7:0.0 0:0.0 0:1.0 1:0.0 
-1.0 0:2.0 25:0.0 520:0.0 0:0.0 0:0.0 0:0.0 0:0.0 0:0.0 0:0.0 0:0.0 0:0.0 139:139.0 0:0.0 0:0.0 1:0.0 0:255.0 255:1.0 0:1.0 0:0.0 0:0.0 
-1.0 0:2.0 7:0.0 18:0.0 0:0.0 0:0.0 0:0.0 0:0.0 0:0.0 0:0.0 0:0.0 0:0.0 1:1.0 0:0.0 0:0.0 1:0.0 0:1.0 225:1.0 0:1.0 0:0.0 0:0.0 
-1.0 0:0.0 22:0.0 1250:2451.0 0:0.0 0:28.0 0:1.0 0:0.0 0:0.0 0:0.0 0:0.0 0:1.0 1:1.0 0:0.0 0:0.0 1:0.0 0:237.0 65:0.0 0:0.0 0:0.0 0:0.0 
-1.0 0:2.0 7:0.0 8:0.0 0:0.0 0:0.0 0:0.0 0:0.0 0:0.0 0:0.0 0:0.0 0:0.0 1:39.0 0:0.0 0:0.0 1:0.0 1:1.0 255:1.0 0:1.0 1:0.0 0:0.0 
-1.0 0:0.0 3:1.0 0:0.0 0:0.0 0:0.0 0:0.0 0:0.0 0:0.0 0:0.0 0:0.0 0:0.0 251:12.0 1:1.0 0:0.0 0:0.0 0:255.0 12:0.0 0:0.0 0:1.0 1:0.0 
-1.0 41285:0.0 4:3.0 1:0.0 0:0.0 0:0.0 0:0.0 0:0.0 0:0.0 0:0.0 0:0.0 0:0.0 2:2.0 0:0.0 1:1.0 1:0.0 0:255.0 2:0.0 0:1.0 0:0.0 0:1.0 
-1.0 0:0.0 45:1.0 0:0.0 0:0.0 0:0.0 0:0.0 0:0.0 0:0.0 0:0.0 0:0.0 0:0.0 222:18.0 1:1.0 0:0.0 0:0.0 0:255.0 18:0.0 0:0.0 0:1.0 1:0.0 
-1.0 0:2.0 7:0.0 18:0.0 0:0.0 0:0.0 0:0.0 0:0.0 0:0.0 0:0.0 0:0.0 0:0.0 1:1.0 0:0.0 0:0.0 1:0.0 0:1.0 33:1.0 0:1.0 1:0.0 0:0.0 
-1.0 13488:0.0 1:3.0 1:0.0 0:0.0 0:0.0 0:0.0 0:0.0 0:0.0 0:0.0 0:0.0 0:0.0 2:2.0 0:0.0 1:1.0 1:0.0 0:255.0 2:0.0 1:1.0 0:0.0 0:1.0 
-1.0 0:0.0 28:2.0 0:0.0 0:0.0 0:0.0 0:0.0 0:0.0 0:0.0 0:0.0 0:0.0 0:0.0 242:1.0 0:0.0 1:1.0 0:0.0 0:255.0 1:0.0 0:0.0 0:0.0 0:1.0 
-1.0 25:0.0 2:3.0 0:0.0 0:0.0 0:0.0 0:0.0 0:0.0 0:0.0 0:0.0 0:0.0 0:0.0 1:1.0 0:0.0 1:1.0 1:0.0 0:255.0 1:0.0 1:1.0 0:0.0 0:1.0 
-0.8957188057600617 0:0.0 39:1.0 0:0.0 0:0.0 0:0.0 0:0.0 0:0.0 0:0.0 0:0.0 0:0.0 0:0.0 136:23.0 1:1.0 0:0.0 0:0.0 0:255.0 23:0.0 0:0.0 0:1.0 1:0.0 
-1.0 0:0.0 42:1.0 0:0.0 0:0.0 0:0.0 0:0.0 0:0.0 0:0.0 0:0.0 0:0.0 0:0.0 272:4.0 1:1.0 0:0.0 0:0.0 0:255.0 4:0.0 0:0.0 0:1.0 1:0.0 
-1.0 0:0.0 21:1.0 0:0.0 0:0.0 0:0.0 0:0.0 0:0.0 0:0.0 0:0.0 0:0.0 0:0.0 292:14.0 1:1.0 0:0.0 0:0.0 0:255.0 11:0.0 0:0.0 0:1.0 1:0.0 
-0.32353497919265845 0:0.0 35:1.0 0:0.0 0:0.0 0:0.0 0:0.0 0:0.0 0:0.0 0:0.0 0:0.0 0:0.0 2:2.0 1:1.0 0:0.0 1:0.0 0:255.0 2:0.0 0:0.0 0:1.0 1:0.0 
-1.0 0:0.0 48:1.0 0:0.0 0:0.0 0:0.0 0:0.0 0:0.0 0:0.0 0:0.0 0:0.0 0:0.0 198:6.0 1:1.0 0:0.0 0:0.0 0:255.0 6:0.0 0:0.0 0:1.0 1:0.0 
-0.6235452638673253 0:0.0 49:1.0 0:0.0 0:0.0 0:1.0 0:0.0 0:0.0 0:0.0 0:0.0 0:0.0 0:0.0 199:1.0 1:1.0 0:0.0 0:0.0 0:255.0 1:0.0 0:1.0 0:1.0 1:0.0 
-1.0 0:2.0 7:0.0 8:0.0 0:0.0 0:0.0 0:0.0 0:0.0 0:0.0 0:0.0 0:0.0 0:0.0 1:41.0 0:0.0 0:0.0 1:0.0 1:2.0 255:1.0 0:1.0 1:0.0 0:0.0 
-0.27594204877511164 0:0.0 1:2.0 0:0.0 0:0.0 0:0.0 0:0.0 0:0.0 0:0.0 0:0.0 0:0.0 0:0.0 509:1.0 0:0.0 1:1.0 0:1.0 0:255.0 1:0.0 1:0.0 0:0.0 0:1.0 
-1.0 0:0.0 6:1.0 0:0.0 0:0.0 0:0.0 0:0.0 0:0.0 0:0.0 0:0.0 0:0.0 0:0.0 237:12.0 1:1.0 0:0.0 0:0.0 0:255.0 12:0.0 0:0.0 0:1.0 1:0.0 
-1.0 0:0.0 24:2.0 0:0.0 0:0.0 0:0.0 0:0.0 0:0.0 0:0.0 0:0.0 0:0.0 0:0.0 287:15.0 0:0.0 1:1.0 0:0.0 0:255.0 15:0.0 0:0.0 0:0.0 0:1.0 
-0.7615941762924194 0:0.0 3:0.0 54540:8314.0 0:0.0 0:2.0 0:1.0 1:0.0 0:0.0 0:0.0 0:0.0 0:0.0 4:4.0 0:0.0 0:0.0 1:0.0 0:4.0 4:1.0 0:0.0 0:0.0 0:0.0 
-1.0 0:0.0 46:1.0 0:0.0 0:0.0 0:0.0 0:0.0 0:0.0 0:0.0 0:0.0 0:0.0 0:0.0 92:3.0 1:1.0 0:0.0 0:0.0 0:255.0 14:0.0 0:0.0 0:1.0 1:0.0 
-0.32883594771647007 0:0.0 0:0.0 334:0.0 0:0.0 0:0.0 0:1.0 0:0.0 0:0.0 0:0.0 0:0.0 0:0.0 1:1.0 0:0.0 0:0.0 1:0.0 0:3.0 22:1.0 0:1.0 0:0.0 0:0.0 
-1.0 0:0.0 16:1.0 0:0.0 0:0.0 0:0.0 0:0.0 0:0.0 0:0.0 0:0.0 0:0.0 0:0.0 197:5.0 1:1.0 0:0.0 0:0.0 0:255.0 5:0.0 0:0.0 0:1.0 1:0.0 
-0.2945471190665884 0:0.0 52:2.0 0:0.0 0:0.0 0:0.0 0:0.0 0:0.0 0:0.0 0:0.0 0:0.0 0:0.0 104:2.0 0:0.0 1:1.0 0:0.0 0:255.0 2:0.0 0:0.0 0:0.0 0:1.0 
-1.0 0:0.0 2:1.0 0:0.0 0:0.0 0:0.0 0:0.0 0:0.0 0:0.0 0:0.0 0:0.0 0:0.0 254:22.0 1:1.0 0:0.0 0:0.0 0:58.0 22:0.0 0:0.0 0:1.0 1:0.0 
-1.0 0:0.0 17:1.0 0:0.0 0:0.0 0:0.0 0:0.0 0:0.0 0:0.0 0:0.0 0:0.0 0:0.0 122:11.0 1:1.0 0:0.0 0:0.0 0:255.0 11:0.0 0:0.0 0:1.0 1:0.0 
-1.0 0:2.0 25:0.0 1032:0.0 0:0.0 0:0.0 0:0.0 0:0.0 0:0.0 0:0.0 0:0.0 0:0.0 511:511.0 0:0.0 0:0.0 1:0.0 0:255.0 118:0.0 0:0.0 0:0.0 0:0.0 
-1.0 0:0.0 27:1.0 0:0.0 0:0.0 0:0.0 0:0.0 0:0.0 0:0.0 0:0.0 0:0.0 0:0.0 232:15.0 1:1.0 0:0.0 0:0.0 0:255.0 15:0.0 0:0.0 0:1.0 1:0.0 
-1.0 0:2.0 25:0.0 1032:0.0 0:0.0 0:0.0 0:0.0 0:0.0 0:0.0 0:0.0 0:0.0 0:0.0 511:511.0 0:0.0 0:0.0 1:0.0 0:255.0 67:0.0 0:0.0 0:0.0 0:0.0 
-1.0 0:0.0 54:1.0 0:0.0 0:0.0 0:0.0 0:0.0 0:0.0 0:0.0 0:0.0 0:0.0 0:0.0 126:4.0 1:1.0 0:0.0 0:0.0 0:255.0 4:0.0 0:0.0 0:1.0 1:0.0 
-1.0 0:0.0 5:1.0 0:0.0 0:0.0 0:0.0 0:0.0 0:0.0 0:0.0 0:0.0 0:0.0 0:0.0 263:3.0 1:1.0 0:0.0 0:0.0 0:255.0 3:0.0 0:0.0 0:1.0 1:0.0 
-1.0 0:0.0 31:1.0 0:0.0 0:0.0 0:0.0 0:0.0 0:0.0 0:0.0 0:0.0 0:0.0 0:0.0 127:12.0 1:1.0 0:0.0 0:0.0 0:255.0 12:0.0 0:0.0 0:1.0 1:0.0 
-0.8954921767418 0:0.0 18:1.0 0:0.0 0:0.0 0:0.0 0:0.0 0:0.0 0:0.0 0:0.0 0:0.0 0:0.0 194:18.0 1:1.0 0:0.0 0:0.0 0:255.0 18:0.0 0:0.0 0:1.0 1:0.0 
-0.8165283670830306 0:0.0 3:0.0 54540:8314.0 0:0.0 0:2.0 0:1.0 1:0.0 0:0.0 0:0.0 0:0.0 0:0.0 2:2.0 0:0.0 0:0.0 1:0.0 0:118.0 118:1.0 0:0.0 0:0.0 0:0.0 
-1.0 0:0.0 26:2.0 0:0.0 0:0.0 0:0.0 0:0.0 0:0.0 0:0.0 0:0.0 0:0.0 0:0.0 266:15.0 0:0.0 1:1.0 0:0.0 0:255.0 15:0.0 0:0.0 0:0.0 0:1.0 
-1.0 0:2.0 7:0.0 8:0.0 0:0.0 0:0.0 0:0.0 0:0.0 0:0.0 0:0.0 0:0.0 0:0.0 1:36.0 0:0.0 0:0.0 1:0.0 1:1.0 183:1.0 0:1.0 1:0.0 0:0.0 
-0.6263931398218591 0:0.0 49:1.0 0:0.0 0:0.0 0:0.0 0:0.0 0:0.0 0:0.0 0:0.0 0:0.0 0:0.0 100:7.0 1:1.0 0:0.0 0:0.0 0:255.0 7:0.0 0:0.0 0:1.0 1:0.0 
-0.5783045691914308 0:0.0 22:5.0 0:0.0 0:0.0 0:0.0 0:0.0 0:0.0 0:0.0 0:0.0 0:0.0 0:0.0 282:19.0 0:0.0 1:1.0 0:0.0 0:255.0 19:0.0 0:0.0 0:0.0 0:1.0 
-1.0 0:0.0 0:0.0 246:0.0 0:0.0 0:0.0 0:1.0 0:0.0 0:0.0 0:0.0 0:0.0 0:0.0 1:1.0 0:0.0 0:0.0 1:0.0 0:5.0 16:1.0 0:1.0 0:0.0 0:0.0 
-1.0 0:0.0 45:1.0 0:0.0 0:0.0 0:0.0 0:0.0 0:0.0 0:0.0 0:0.0 0:0.0 0:0.0 244:5.0 1:1.0 0:0.0 0:0.0 0:255.0 5:0.0 0:0.0 0:1.0 1:0.0 
-1.0 17399:0.0 1:3.0 1:0.0 0:0.0 0:0.0 0:0.0 0:0.0 0:0.0 0:0.0 0:0.0 0:0.0 2:2.0 0:0.0 1:1.0 1:0.0 0:255.0 2:0.0 1:1.0 0:0.0 0:1.0 
-0.3274803788499459 0:0.0 0:0.0 334:0.0 0:0.0 0:0.0 0:1.0 0:0.0 0:0.0 0:0.0 0:0.0 0:0.0 2:2.0 0:0.0 0:0.0 1:0.0 0:8.0 27:1.0 0:1.0 0:0.0 0:0.0 
-1.0 0:0.0 42:1.0 0:0.0 0:0.0 0:0.0 0:0.0 0:0.0 0:0.0 0:0.0 0:0.0 0:0.0 269:18.0 1:1.0 0:0.0 0:0.0 0:255.0 18:0.0 0:0.0 0:1.0 1:0.0 
-1.0 0:2.0 7:0.0 8:0.0 0:0.0 0:0.0 0:0.0 0:0.0 0:0.0 0:0.0 0:0.0 0:0.0 1:22.0 0:0.0 0:0.0 1:0.0 1:2.0 129:1.0 0:1.0 1:0.0 0:0.0 
-1.0 21263:0.0 2:3.0 1:0.0 0:0.0 0:0.0 0:0.0 0:0.0 0:0.0 0:0.0 0:0.0 0:0.0 2:2.0 0:0.0 1:1.0 1:0.0 0:255.0 2:0.0 1:1.0 0:0.0 0:1.0 
-1.0 0:2.0 25:0.0 1032:0.0 0:0.0 0:0.0 0:0.0 0:0.0 0:0.0 0:0.0 0:0.0 0:0.0 322:322.0 0:0.0 0:0.0 1:0.0 0:255.0 219:1.0 0:1.0 0:0.0 0:0.0 
-1.0 0:0.0 0:1.0 0:0.0 0:0.0 0:0.0 0:0.0 0:0.0 0:0.0 0:0.0 0:0.0 0:0.0 271:25.0 1:1.0 0:0.0 0:0.0 0:255.0 25:0.0 0:0.0 0:1.0 1:0.0 
-1.0 0:0.0 43:1.0 0:0.0 0:0.0 0:0.0 0:0.0 0:0.0 0:0.0 0:0.0 0:0.0 0:0.0 140:12.0 1:1.0 0:0.0 0:0.0 0:255.0 12:0.0 0:0.0 0:1.0 1:0.0 
-0.6264507642757169 0:0.0 36:1.0 0:0.0 0:0.0 0:0.0 0:0.0 0:0.0 0:0.0 0:0.0 0:0.0 0:0.0 180:13.0 1:1.0 0:0.0 0:0.0 0:255.0 13:0.0 0:0.0 0:1.0 1:0.0 
-1.0 0:0.0 10:1.0 0:0.0 0:0.0 0:0.0 0:0.0 0:0.0 0:0.0 0:0.0 0:0.0 0:0.0 278:20.0 1:1.0 0:0.0 0:0.0 0:255.0 20:0.0 0:0.0 0:1.0 1:0.0 
-0.29454546211243354 0:0.0 52:1.0 0:0.0 0:0.0 0:0.0 0:0.0 0:0.0 0:0.0 0:0.0 0:0.0 0:0.0 45:4.0 1:1.0 0:0.0 0:0.0 0:255.0 4:0.0 0:0.0 0:1.0 1:0.0 
-0.46424493614158646 0:0.0 34:1.0 0:0.0 0:0.0 0:0.0 0:0.0 0:0.0 0:0.0 0:0.0 0:0.0 0:0.0 6:3.0 1:1.0 0:0.0 1:0.0 0:255.0 3:0.0 0:0.0 0:1.0 1:0.0 
-1.0 0:0.0 42:1.0 0:0.0 0:0.0 0:0.0 0:0.0 0:0.0 0:0.0 0:0.0 0:0.0 0:0.0 279:10.0 1:1.0 0:0.0 0:0.0 0:255.0 10:0.0 0:0.0 0:1.0 1:0.0 
-0.8077014296625586 0:0.0 47:1.0 0:0.0 0:0.0 0:0.0 0:0.0 0:0.0 0:0.0 0:0.0 0:0.0 0:0.0 130:4.0 1:1.0 0:0.0 0:0.0 0:255.0 2:0.0 0:0.0 0:1.0 1:0.0 
-1.0 0:2.0 7:0.0 8:0.0 0:0.0 0:0.0 0:0.0 0:0.0 0:0.0 0:0.0 0:0.0 0:0.0 1:27.0 0:0.0 0:0.0 1:0.0 1:2.0 129:1.0 0:1.0 1:0.0 0:0.0 
-1.0 0:0.0 42:1.0 0:0.0 0:0.0 0:0.0 0:0.0 0:0.0 0:0.0 0:0.0 0:0.0 0:0.0 106:6.0 1:1.0 0:0.0 0:0.0 0:255.0 17:0.0 0:0.0 0:1.0 1:0.0 
-1.0 0:0.0 50:1.0 0:0.0 0:0.0 0:0.0 0:0.0 0:0.0 0:0.0 0:0.0 0:0.0 0:0.0 256:4.0 1:1.0 0:0.0 0:0.0 0:255.0 4:0.0 0:0.0 0:1.0 1:0.0 
-1.0 0:0.0 43:1.0 0:0.0 0:0.0 0:0.0 0:0.0 0:0.0 0:0.0 0:0.0 0:0.0 0:0.0 108:18.0 1:1.0 0:0.0 0:0.0 0:255.0 9:0.0 0:0.0 0:1.0 1:0.0 
-1.0 0:0.0 47:1.0 0:0.0 0:0.0 0:0.0 0:0.0 0:0.0 0:0.0 0:0.0 0:0.0 0:0.0 102:2.0 1:1.0 0:0.0 0:0.0 0:255.0 2:0.0 0:0.0 0:1.0 1:0.0 
-1.0 0:0.0 8:1.0 0:0.0 0:0.0 0:0.0 0:0.0 0:0.0 0:0.0 0:0.0 0:0.0 0:0.0 239:12.0 1:1.0 0:0.0 0:0.0 0:255.0 4:0.0 0:0.0 0:1.0 1:0.0 
-1.0 0:2.0 25:0.0 1032:0.0 0:0.0 0:0.0 0:0.0 0:0.0 0:0.0 0:0.0 0:0.0 0:0.0 511:511.0 0:0.0 0:0.0 1:0.0 0:243.0 98:0.0 0:0.0 0:0.0 0:0.0 
-1.0 0:0.0 3:2.0 0:0.0 0:0.0 0:0.0 0:0.0 0:0.0 0:0.0 0:0.0 0:0.0 0:0.0 258:6.0 0:0.0 1:1.0 0:0.0 0:255.0 6:0.0 0:0.0 0:0.0 0:1.0 
-1.0 0:0.0 2:1.0 0:0.0 0:0.0 0:0.0 0:0.0 0:0.0 0:0.0 0:0.0 0:0.0 0:0.0 105:5.0 1:1.0 0:0.0 0:0.0 0:255.0 27:0.0 0:0.0 0:1.0 1:0.0 
-0.32440646230191444 0:0.0 35:1.0 0:0.0 0:0.0 0:0.0 0:0.0 0:0.0 0:0.0 0:0.0 0:0.0 0:0.0 145:21.0 1:1.0 0:0.0 0:0.0 0:255.0 21:0.0 0:0.0 0:1.0 1:0.0 
-0.02143962842417918 0:0.0 23:1.0 0:0.0 0:0.0 0:0.0 0:0.0 0:0.0 0:0.0 0:0.0 0:0.0 0:0.0 9:2.0 1:1.0 0:0.0 0:0.0 0:255.0 2:0.0 0:0.0 0:1.0 1:0.0 
-1.0 0:0.0 31:1.0 0:0.0 0:0.0 0:0.0 0:0.0 0:0.0 0:0.0 0:0.0 0:0.0 0:0.0 45:2.0 1:1.0 0:0.0 0:0.0 0:255.0 10:0.0 0:0.0 0:1.0 1:0.0 
-1.0 0:2.0 7:0.0 8:0.0 0:0.0 0:0.0 0:0.0 0:0.0 0:0.0 0:0.0 0:0.0 0:0.0 1:2.0 0:0.0 0:0.0 1:0.0 1:1.0 17:1.0 0:1.0 1:0.0 0:0.0 
-0.021808402054629458 0:0.0 23:1.0 0:0.0 0:0.0 0:0.0 0:0.0 0:0.0 0:0.0 0:0.0 0:0.0 0:0.0 265:9.0 1:1.0 0:0.0 0:0.0 0:255.0 9:0.0 0:0.0 0:1.0 1:0.0 
-1.0 0:0.0 32:1.0 0:0.0 0:0.0 0:0.0 0:0.0 0:0.0 0:0.0 0:0.0 0:0.0 0:0.0 255:7.0 1:1.0 0:0.0 0:0.0 0:255.0 10:0.0 0:0.0 0:1.0 1:0.0 
-1.0 0:0.0 3:1.0 0:0.0 0:0.0 0:0.0 0:0.0 0:0.0 0:0.0 0:0.0 0:0.0 0:0.0 150:20.0 1:1.0 0:0.0 0:0.0 0:255.0 14:0.0 0:0.0 0:1.0 1:0.0 
-1.0 0:0.0 23:1.0 0:0.0 0:0.0 0:0.0 0:0.0 0:0.0 0:0.0 0:0.0 0:0.0 0:0.0 217:2.0 1:1.0 0:0.0 0:0.0 0:255.0 2:0.0 0:0.0 0:1.0 1:0.0 
-1.0 0:2.0 7:0.0 8:0.0 0:0.0 0:0.0 0:0.0 0:0.0 0:0.0 0:0.0 0:0.0 0:0.0 1:36.0 0:0.0 0:0.0 1:0.0 1:1.0 169:1.0 0:1.0 0:0.0 0:0.0 
-1.0 0:0.0 32:1.0 0:0.0 0:0.0 0:0.0 0:0.0 0:0.0 0:0.0 0:0.0 0:0.0 0:0.0 195:1.0 1:1.0 0:0.0 0:0.0 0:255.0 1:0.0 0:0.0 0:1.0 1:0.0 
-1.0 0:2.0 25:0.0 1032:0.0 0:0.0 0:0.0 0:0.0 0:0.0 0:0.0 0:0.0 0:0.0 0:0.0 65:65.0 0:0.0 0:0.0 1:0.0 0:255.0 255:1.0 0:1.0 0:0.0 0:0.0 
-1.0 0:2.0 7:0.0 8:0.0 0:0.0 0:0.0 0:0.0 0:0.0 0:0.0 0:0.0 0:0.0 0:0.0 1:17.0 0:0.0 0:0.0 1:0.0 1:3.0 80:1.0 0:1.0 0:0.0 0:0.0 
-1.0 2:0.0 2:3.0 0:0.0 0:0.0 0:0.0 0:0.0 0:0.0 0:0.0 0:0.0 0:0.0 0:0.0 1:1.0 0:0.0 1:1.0 1:0.0 0:255.0 1:0.0 1:1.0 0:0.0 0:1.0 
-1.0 0:0.0 17:1.0 0:0.0 0:0.0 0:0.0 0:0.0 0:0.0 0:0.0 0:0.0 0:0.0 0:0.0 120:2.0 1:1.0 0:0.0 0:0.0 0:255.0 1:0.0 0:0.0 0:1.0 1:0.0 
-0.6139964847648742 4:0.0 2:3.0 0:0.0 0:0.0 0:0.0 0:0.0 0:0.0 0:0.0 0:0.0 0:0.0 0:0.0 63:2.0 0:0.0 1:1.0 0:1.0 0:255.0 2:0.0 0:0.0 0:0.0 0:1.0 
-1.0 0:2.0 25:0.0 520:0.0 0:0.0 0:0.0 0:0.0 0:0.0 0:0.0 0:0.0 0:0.0 0:0.0 261:261.0 0:0.0 0:0.0 1:0.0 0:255.0 255:1.0 0:1.0 0:0.0 0:0.0 
-1.0 0:0.0 45:1.0 0:0.0 0:0.0 0:0.0 0:0.0 0:0.0 0:0.0 0:0.0 0:0.0 0:0.0 242:1.0 1:1.0 0:0.0 0:0.0 0:255.0 1:0.0 0:0.0 0:1.0 1:0.0 
-1.0 0:0.0 3:1.0 0:0.0 0:0.0 0:0.0 0:0.0 0:0.0 0:0.0 0:0.0 0:0.0 0:0.0 50:11.0 1:1.0 0:0.0 0:0.0 0:255.0 51:0.0 0:0.0 0:1.0 1:0.0 
-1.0 0:2.0 7:0.0 8:0.0 0:0.0 0:0.0 0:0.0 0:0.0 0:0.0 0:0.0 0:0.0 0:0.0 1:52.0 0:0.0 0:0.0 1:0.0 1:2.0 255:1.0 0:1.0 0:0.0 0:0.0 
-0.4629476342163085 0:0.0 34:1.0 0:0.0 0:0.0 0:0.0 0:0.0 0:0.0 0:0.0 0:0.0 0:0.0 0:0.0 170:11.0 1:1.0 0:0.0 0:0.0 0:255.0 11:0.0 0:0.0 0:1.0 1:0.0 
-1.0 0:0.0 12:1.0 0:0.0 0:0.0 0:0.0 0:0.0 0:0.0 0:0.0 0:0.0 0:0.0 0:0.0 252:23.0 1:1.0 0:0.0 0:0.0 0:255.0 23:0.0 0:0.0 0:1.0 1:0.0 
-1.0 0:0.0 3:2.0 0:0.0 0:0.0 0:0.0 0:0.0 0:0.0 0:0.0 0:0.0 0:0.0 0:0.0 269:18.0 0:0.0 1:1.0 0:0.0 0:255.0 18:0.0 0:0.0 0:0.0 0:1.0 
-1.0 0:2.0 7:0.0 8:0.0 0:0.0 0:0.0 0:0.0 0:0.0 0:0.0 0:0.0 0:0.0 0:0.0 1:26.0 0:0.0 0:0.0 1:0.0 1:1.0 153:1.0 0:1.0 1:0.0 0:0.0 
-1.0 0:0.0 56:1.0 0:0.0 0:0.0 0:0.0 0:0.0 0:0.0 0:0.0 0:0.0 0:0.0 0:0.0 281:3.0 1:1.0 0:0.0 0:0.0 0:255.0 3:0.0 0:0.0 0:1.0 1:0.0 
-1.0 0:0.0 30:2.0 0:0.0 0:0.0 0:0.0 0:0.0 0:0.0 0:0.0 0:0.0 0:0.0 0:0.0 116:12.0 0:0.0 1:1.0 0:0.0 0:255.0 12:0.0 0:0.0 0:0.0 0:1.0 
-0.7994424100758055 0:0.0 47:2.0 0:0.0 0:0.0 0:0.0 0:0.0 0:0.0 0:0.0 0:0.0 0:0.0 0:0.0 118:16.0 0:0.0 1:1.0 0:0.0 0:255.0 16:0.0 0:0.0 0:0.0 0:1.0 
-1.0 0:0.0 24:1.0 0:0.0 0:0.0 0:0.0 0:0.0 0:0.0 0:0.0 0:0.0 0:0.0 0:0.0 240:9.0 1:1.0 0:0.0 0:0.0 0:255.0 9:0.0 0:0.0 0:1.0 1:0.0 
-1.0 0:2.0 25:0.0 520:0.0 0:0.0 0:0.0 0:0.0 0:0.0 0:0.0 0:0.0 0:0.0 0:0.0 434:434.0 0:0.0 0:0.0 1:0.0 0:30.0 30:1.0 0:1.0 0:0.0 0:0.0 
-0.7965616227761293 0:0.0 1:1.0 0:0.0 0:0.0 0:0.0 0:0.0 0:0.0 0:0.0 0:0.0 0:0.0 0:0.0 511:1.0 0:1.0 1:0.0 0:1.0 0:255.0 1:0.0 1:0.0 0:0.0 1:1.0 
-0.5781587873231694 0:0.0 57:5.0 0:0.0 0:0.0 0:0.0 0:0.0 0:0.0 0:0.0 0:0.0 0:0.0 0:0.0 111:5.0 0:0.0 1:1.0 0:0.0 0:255.0 5:0.0 0:0.0 0:0.0 0:1.0 
-1.0 0:0.0 46:1.0 0:0.0 0:0.0 0:0.0 0:0.0 0:0.0 0:0.0 0:0.0 0:0.0 0:0.0 228:22.0 1:1.0 0:0.0 0:0.0 0:255.0 22:0.0 0:0.0 0:1.0 1:0.0 
-1.0 0:2.0 25:0.0 520:0.0 0:0.0 0:0.0 0:0.0 0:0.0 0:0.0 0:0.0 0:0.0 0:0.0 282:282.0 0:0.0 0:0.0 1:0.0 0:255.0 255:1.0 0:1.0 0:0.0 0:0.0 
-1.0 0:2.0 25:0.0 1032:0.0 0:0.0 0:0.0 0:0.0 0:0.0 0:0.0 0:0.0 0:0.0 0:0.0 250:250.0 0:0.0 0:0.0 1:0.0 0:255.0 250:1.0 0:1.0 0:0.0 0:0.0 
-1.0 0:0.0 41:1.0 0:0.0 0:0.0 0:0.0 0:0.0 0:0.0 0:0.0 0:0.0 0:0.0 0:0.0 262:7.0 1:1.0 0:0.0 0:0.0 0:255.0 7:0.0 0:0.0 0:1.0 1:0.0 
-1.0 0:2.0 7:0.0 8:0.0 0:0.0 0:0.0 0:0.0 0:0.0 0:0.0 0:0.0 0:0.0 0:0.0 1:34.0 0:0.0 0:0.0 1:0.0 1:1.0 139:1.0 0:1.0 1:0.0 0:0.0 
-1.0 0:0.0 48:1.0 0:0.0 0:0.0 0:0.0 0:0.0 0:0.0 0:0.0 0:0.0 0:0.0 0:0.0 270:7.0 1:1.0 0:0.0 0:0.0 0:255.0 7:0.0 0:0.0 0:1.0 1:0.0 
-1.0 1051:0.0 1:3.0 1:0.0 0:0.0 0:0.0 0:0.0 0:0.0 0:0.0 0:0.0 0:0.0 0:0.0 2:2.0 0:0.0 1:1.0 1:0.0 0:255.0 2:0.0 1:1.0 0:0.0 0:1.0 
-1.0 0:0.0 34:1.0 0:0.0 0:0.0 0:0.0 0:0.0 0:0.0 0:0.0 0:0.0 0:0.0 0:0.0 239:6.0 1:1.0 0:0.0 0:0.0 0:255.0 6:0.0 0:0.0 0:1.0 1:0.0 
-0.8957188057600617 0:0.0 37:1.0 0:0.0 0:0.0 0:0.0 0:0.0 0:0.0 0:0.0 0:0.0 0:0.0 0:0.0 229:7.0 1:1.0 0:0.0 0:0.0 0:255.0 7:0.0 0:0.0 0:1.0 1:0.0 
